{
  "name": "kan",
  "node_count": 11,
  "op_counts": {
    "matmul": 3,
    "standard_act": 2,
    "bspline_lut": 2,
    "add": 2,
    "softmax": 1,
    "argmax": 1
  },
  "nodes": [
    {
      "id": 0,
      "op": "matmul",
      "name": "input_features",
      "inputs": [],
      "outputs": [
        1,
        3
      ],
      "attrs": {
        "W": {
          "__type": "ndarray",
          "dtype": "float32",
          "shape": [
            28,
            28
          ],
          "data": [
            1.0,
            0.0,
            0.0,
            0.0,
            0.0,
            0.0,
            0.0,
            0.0,
            0.0,
            0.0,
            0.0,
            0.0,
            0.0,
            0.0,
            0.0,
            0.0,
            0.0,
            0.0,
            0.0,
            0.0,
            0.0,
            0.0,
            0.0,
            0.0,
            0.0,
            0.0,
            0.0,
            0.0,
            0.0,
            1.0,
            0.0,
            0.0,
            0.0,
            0.0,
            0.0,
            0.0,
            0.0,
            0.0,
            0.0,
            0.0,
            0.0,
            0.0,
            0.0,
            0.0,
            0.0,
            0.0,
            0.0,
            0.0,
            0.0,
            0.0,
            0.0,
            0.0,
            0.0,
            0.0,
            0.0,
            0.0,
            0.0,
            0.0,
            1.0,
            0.0,
            0.0,
            0.0,
            0.0,
            0.0,
            0.0,
            0.0,
            0.0,
            0.0,
            0.0,
            0.0,
            0.0,
            0.0,
            0.0,
            0.0,
            0.0,
            0.0,
            0.0,
            0.0,
            0.0,
            0.0,
            0.0,
            0.0,
            0.0,
            0.0,
            0.0,
            0.0,
            0.0,
            1.0,
            0.0,
            0.0,
            0.0,
            0.0,
            0.0,
            0.0,
            0.0,
            0.0,
            0.0,
            0.0,
            0.0,
            0.0
          ],
          "truncated": true
        },
        "b": {
          "__type": "ndarray",
          "dtype": "float32",
          "shape": [
            28
          ],
          "data": [
            0.0,
            0.0,
            0.0,
            0.0,
            0.0,
            0.0,
            0.0,
            0.0,
            0.0,
            0.0,
            0.0,
            0.0,
            0.0,
            0.0,
            0.0,
            0.0,
            0.0,
            0.0,
            0.0,
            0.0,
            0.0,
            0.0,
            0.0,
            0.0,
            0.0,
            0.0,
            0.0,
            0.0
          ],
          "truncated": false
        },
        "_virtual_input": true
      },
      "shape_in": [
        28
      ],
      "shape_out": [
        28
      ]
    },
    {
      "id": 1,
      "op": "standard_act",
      "name": "l0_silu",
      "inputs": [
        0
      ],
      "outputs": [
        2
      ],
      "attrs": {
        "type": "silu"
      },
      "shape_in": [
        28
      ],
      "shape_out": [
        28
      ]
    },
    {
      "id": 2,
      "op": "matmul",
      "name": "l0_base",
      "inputs": [
        1
      ],
      "outputs": [
        4
      ],
      "attrs": {
        "W": {
          "__type": "ndarray",
          "dtype": "float32",
          "shape": [
            16,
            28
          ],
          "data": [
            0.3822260797023773,
            0.6735258102416992,
            0.49992576241493225,
            0.07098432630300522,
            0.4040336012840271,
            -0.31684982776641846,
            -0.5318553447723389,
            -0.33488887548446655,
            0.5234552025794983,
            0.324140340089798,
            -0.6014917492866516,
            -0.28693243861198425,
            -0.08133163303136826,
            0.2735443115234375,
            -0.5975452661514282,
            -0.367167592048645,
            0.16043949127197266,
            0.6218056678771973,
            -0.5354070067405701,
            -0.4288390278816223,
            0.4432987868785858,
            -0.11952264606952667,
            -0.1593683809041977,
            -0.42085668444633484,
            -0.016431061550974846,
            0.11771059781312943,
            -0.19156987965106964,
            -0.25859084725379944,
            0.7388805150985718,
            0.7177937030792236,
            0.9066411852836609,
            -0.3313665986061096,
            -0.5566195249557495,
            0.10096956044435501,
            0.7024982571601868,
            -0.006140721496194601,
            0.9221094250679016,
            0.9728314876556396,
            0.728779137134552,
            0.10119170695543289,
            0.17085610330104828,
            0.01812657341361046,
            -0.3799454867839813,
            -0.22215087711811066,
            -0.29965683817863464,
            0.185639888048172,
            -0.2363336682319641,
            0.3469633460044861,
            -0.31709057092666626,
            -0.30107244849205017,
            -0.44637131690979004,
            0.48186221718788147,
            -0.26952922344207764,
            -0.4620254337787628,
            0.05330270156264305,
            -0.39515599608421326,
            0.04083545133471489,
            -0.2507217526435852,
            0.028087882325053215,
            0.04588540643453598,
            -0.013949397020041943,
            0.009841944091022015,
            -0.4868755340576172,
            0.1032087504863739,
            0.12317869812250137,
            0.5223994851112366,
            0.4042619466781616,
            0.2341683954000473,
            -0.23047570884227753,
            0.06350329518318176,
            -0.3774453103542328,
            -0.4428133964538574,
            -0.04841263219714165,
            0.28956690430641174,
            -0.6764415502548218,
            -0.30884307622909546,
            0.48270368576049805,
            0.06915483623743057,
            0.46618542075157166,
            0.12047363072633743,
            -0.4872637093067169,
            -0.09517347067594528,
            -0.01895931363105774,
            -0.1372051239013672,
            -0.9140335321426392,
            -0.8600994944572449,
            -1.0561867952346802,
            -0.5128109455108643,
            -0.7898985147476196,
            -0.5083115100860596,
            -0.5282256007194519,
            -0.42631226778030396,
            -1.0160443782806396,
            -0.021246349439024925,
            0.6550045609474182,
            0.4706960916519165,
            -0.1141442358493805,
            -0.2175038605928421,
            -0.28402212262153625,
            -0.33062607049942017
          ],
          "truncated": true
        },
        "b": {
          "__type": "ndarray",
          "dtype": "float32",
          "shape": [
            16
          ],
          "data": [
            0.0,
            0.0,
            0.0,
            0.0,
            0.0,
            0.0,
            0.0,
            0.0,
            0.0,
            0.0,
            0.0,
            0.0,
            0.0,
            0.0,
            0.0,
            0.0
          ],
          "truncated": false
        },
        "_scale": 1.7088137865066528
      },
      "shape_in": [
        28
      ],
      "shape_out": [
        16
      ]
    },
    {
      "id": 3,
      "op": "bspline_lut",
      "name": "l0_bspline",
      "inputs": [
        0
      ],
      "outputs": [
        4
      ],
      "attrs": {
        "table": {
          "__type": "ndarray",
          "dtype": "float32",
          "shape": [
            16,
            28,
            50
          ],
          "data": [
            -0.11948294192552567,
            -0.1220349594950676,
            -0.12420687079429626,
            -0.12599191069602966,
            -0.12738332152366638,
            -0.1283743679523468,
            -0.12895822525024414,
            -0.12912820279598236,
            -0.12887728214263916,
            -0.1281951367855072,
            -0.12706872820854187,
            -0.12548495829105377,
            -0.12343073636293411,
            -0.1208929792046547,
            -0.11785860359668732,
            -0.11431451886892319,
            -0.11024761199951172,
            -0.10564479976892471,
            -0.10049302130937576,
            -0.09477914869785309,
            -0.08849010616540909,
            -0.08161278069019318,
            -0.07413411885499954,
            -0.06604098528623581,
            -0.05732032284140587,
            -0.04795902967453003,
            -0.03794403001666069,
            -0.027262583374977112,
            -0.01594574935734272,
            -0.004107345826923847,
            0.008129500783979893,
            0.020641649141907692,
            0.03330601751804352,
            0.045999474823474884,
            0.058598946779966354,
            0.07098124176263809,
            0.08302329480648041,
            0.09460199624300003,
            0.105594202876091,
            0.11587683856487274,
            0.1253267526626587,
            0.13382083177566528,
            0.14123599231243134,
            0.14744912087917328,
            0.15233705937862396,
            0.155776709318161,
            0.15764497220516205,
            0.15785299241542816,
            0.1564832329750061,
            0.1536714732646942,
            -0.004841301124542952,
            -0.0056829857639968395,
            -0.0062710875645279884,
            -0.00657292827963829,
            -0.006555833388119936,
            -0.00618712417781353,
            -0.005434116814285517,
            -0.004264131188392639,
            -0.0026466278359293938,
            -0.0005839535733684897,
            0.0018956366693601012,
            0.004763192497193813,
            0.00798975769430399,
            0.01154637336730957,
            0.015404087491333485,
            0.019533943384885788,
            0.023907002061605453,
            0.028494277969002724,
            0.03326684609055519,
            0.038195740431547165,
            0.04325200989842415,
            0.0484066903591156,
            0.05363083630800247,
            0.058895502239465714,
            0.06417171657085419,
            0.06943051517009735,
            0.07464297115802765,
            0.07978016883134842,
            0.08481927216053009,
            0.08974884450435638,
            0.09455878287553787,
            0.09923892468214035,
            0.10377918928861618,
            0.10816941410303116,
            0.11239949613809586,
            0.11645929515361786,
            0.12033869326114655,
            0.1240275576710701,
            0.1275157481431961,
            0.13079316914081573,
            0.13384968042373657,
            0.13667511940002441,
            0.13925941288471222,
            0.14159244298934937,
            0.14366403222084045,
            0.14546404778957367,
            0.14698241651058197,
            0.1482120156288147,
            0.14916084706783295,
            0.14984163641929626
          ],
          "truncated": true
        },
        "grid": {
          "__type": "ndarray",
          "dtype": "float64",
          "shape": [
            50
          ],
          "data": [
            -3.0,
            -2.877551020408163,
            -2.7551020408163267,
            -2.63265306122449,
            -2.510204081632653,
            -2.387755102040816,
            -2.2653061224489797,
            -2.142857142857143,
            -2.020408163265306,
            -1.8979591836734695,
            -1.7755102040816326,
            -1.653061224489796,
            -1.5306122448979593,
            -1.4081632653061225,
            -1.2857142857142858,
            -1.163265306122449,
            -1.0408163265306123,
            -0.9183673469387754,
            -0.795918367346939,
            -0.6734693877551021,
            -0.5510204081632653,
            -0.4285714285714288,
            -0.30612244897959195,
            -0.18367346938775508,
            -0.06122448979591866,
            0.06122448979591821,
            0.18367346938775508,
            0.30612244897959195,
            0.4285714285714284,
            0.5510204081632653,
            0.6734693877551021,
            0.7959183673469385,
            0.9183673469387754,
            1.0408163265306118,
            1.1632653061224492,
            1.2857142857142856,
            1.408163265306122,
            1.5306122448979593,
            1.6530612244897958,
            1.7755102040816322,
            1.8979591836734695,
            2.020408163265306,
            2.1428571428571423,
            2.2653061224489797,
            2.387755102040816,
            2.5102040816326525,
            2.63265306122449,
            2.7551020408163263,
            2.8775510204081627,
            3.0
          ],
          "truncated": false
        },
        "x_range": [
          -3.0,
          3.0
        ],
        "_scale": 1.4052091836929321,
        "_spline_order": 3,
        "_grid_size": 8
      },
      "shape_in": [
        28
      ],
      "shape_out": [
        28,
        16
      ]
    },
    {
      "id": 4,
      "op": "add",
      "name": "l0_merge",
      "inputs": [
        2,
        3
      ],
      "outputs": [
        5,
        7
      ],
      "attrs": {
        "scale_base": 1.7088137865066528,
        "scale_spline": 1.4052091836929321
      },
      "shape_in": [
        16
      ],
      "shape_out": [
        16
      ]
    },
    {
      "id": 5,
      "op": "standard_act",
      "name": "l1_silu",
      "inputs": [
        4
      ],
      "outputs": [
        6
      ],
      "attrs": {
        "type": "silu"
      },
      "shape_in": [
        16
      ],
      "shape_out": [
        16
      ]
    },
    {
      "id": 6,
      "op": "matmul",
      "name": "l1_base",
      "inputs": [
        5
      ],
      "outputs": [
        8
      ],
      "attrs": {
        "W": {
          "__type": "ndarray",
          "dtype": "float32",
          "shape": [
            4,
            16
          ],
          "data": [
            0.02541222795844078,
            -0.4251655340194702,
            -0.4513899087905884,
            0.026270458474755287,
            0.3702881336212158,
            -0.12081607431173325,
            -0.22312386333942413,
            0.25124406814575195,
            -0.327879935503006,
            0.28895413875579834,
            -0.06542423367500305,
            0.10672809183597565,
            0.26238152384757996,
            -0.1798090785741806,
            -0.3070911169052124,
            -0.42044466733932495,
            0.5762351155281067,
            -1.0906574726104736,
            -0.26905179023742676,
            -0.6730261445045471,
            -0.051492344588041306,
            -0.4457789361476898,
            0.5072183012962341,
            -0.05496610328555107,
            0.3812393546104431,
            -0.6063070297241211,
            0.19179192185401917,
            0.15254417061805725,
            -0.4219312369823456,
            0.3383130431175232,
            0.19198741018772125,
            -0.34572938084602356,
            0.17289775609970093,
            0.5825878381729126,
            0.7331662774085999,
            0.4268312454223633,
            -0.007742179557681084,
            0.47664874792099,
            0.10260698944330215,
            -0.5723706483840942,
            0.0728498250246048,
            0.4253429174423218,
            -0.3637053072452545,
            -0.6206156015396118,
            0.26569443941116333,
            -0.3130539357662201,
            0.20332123339176178,
            0.13271217048168182,
            -0.7091009616851807,
            0.7231102585792542,
            -0.2214241474866867,
            0.44916218519210815,
            -0.36557134985923767,
            0.4263724088668823,
            0.026653073728084564,
            0.4637966454029083,
            -0.3418978750705719,
            -0.23913633823394775,
            0.41525787115097046,
            0.2146361619234085,
            -0.3901597559452057,
            -0.19387541711330414,
            -0.5619489550590515,
            0.4047181010246277
          ],
          "truncated": false
        },
        "b": {
          "__type": "ndarray",
          "dtype": "float32",
          "shape": [
            4
          ],
          "data": [
            0.0,
            0.0,
            0.0,
            0.0
          ],
          "truncated": false
        },
        "_scale": 1.6978758573532104
      },
      "shape_in": [
        16
      ],
      "shape_out": [
        4
      ]
    },
    {
      "id": 7,
      "op": "bspline_lut",
      "name": "l1_bspline",
      "inputs": [
        4
      ],
      "outputs": [
        8
      ],
      "attrs": {
        "table": {
          "__type": "ndarray",
          "dtype": "float32",
          "shape": [
            4,
            16,
            50
          ],
          "data": [
            0.09694579988718033,
            0.09750045090913773,
            0.09804423153400421,
            0.09857694059610367,
            0.09909839183092117,
            0.0996083989739418,
            0.10010678321123123,
            0.10059332102537155,
            0.10106784850358963,
            0.10153015702962875,
            0.10198008269071579,
            0.10241743922233582,
            0.10284199565649033,
            0.10325361043214798,
            0.10365207493305206,
            0.10403718054294586,
            0.10440876334905624,
            0.10476662963628769,
            0.10511058568954468,
            0.10544043779373169,
            0.105756014585495,
            0.10605710744857788,
            0.10634353756904602,
            0.1066151112318039,
            0.10687162727117538,
            0.10711292177438736,
            0.10733877867460251,
            0.1075490340590477,
            0.10774347931146622,
            0.10792193561792374,
            0.10808420926332474,
            0.1082301214337349,
            0.10835947096347809,
            0.1084720715880394,
            0.1085677519440651,
            0.10864660888910294,
            0.10870880633592606,
            0.10875456780195236,
            0.10878410190343857,
            0.10879762470722198,
            0.10879532992839813,
            0.10877742618322372,
            0.10874414443969727,
            0.10869564861059189,
            0.1086321547627449,
            0.1085539162158966,
            0.10846105962991714,
            0.10835385322570801,
            0.10823248326778412,
            0.10809716582298279,
            0.06922922283411026,
            0.06881747394800186,
            0.06840270757675171,
            0.06798473745584488,
            0.06756336241960526,
            0.06713838875293732,
            0.06670962274074554,
            0.06627685576677322,
            0.06583991646766663,
            0.06539859622716904,
            0.06495270878076553,
            0.06450206786394119,
            0.0640464574098587,
            0.06358571350574493,
            0.06311961263418198,
            0.06264796853065491,
            0.0621705986559391,
            0.06168730929493904,
            0.06119788810610771,
            0.06070215627551079,
            0.06019992008805275,
            0.05969098210334778,
            0.05917515233159065,
            0.058652233332395554,
            0.05812201648950577,
            0.05758433789014816,
            0.05703898146748543,
            0.05648576840758324,
            0.055924493819475174,
            0.055354952812194824,
            0.054776981472969055,
            0.05419037118554115,
            0.053594920784235,
            0.052990444004535675,
            0.05237678065896034,
            0.05175399035215378,
            0.05112230405211449,
            0.05048195645213127,
            0.04983317106962204,
            0.0491761639714241,
            0.04851116985082626,
            0.047838401049375534,
            0.047158095985651016,
            0.04647046700119972,
            0.045775748789310455,
            0.04507416859269142,
            0.044365931302309036,
            0.043651282787323,
            0.04293043166399002,
            0.042203620076179504
          ],
          "truncated": true
        },
        "grid": {
          "__type": "ndarray",
          "dtype": "float64",
          "shape": [
            50
          ],
          "data": [
            -3.0,
            -2.877551020408163,
            -2.7551020408163267,
            -2.63265306122449,
            -2.510204081632653,
            -2.387755102040816,
            -2.2653061224489797,
            -2.142857142857143,
            -2.020408163265306,
            -1.8979591836734695,
            -1.7755102040816326,
            -1.653061224489796,
            -1.5306122448979593,
            -1.4081632653061225,
            -1.2857142857142858,
            -1.163265306122449,
            -1.0408163265306123,
            -0.9183673469387754,
            -0.795918367346939,
            -0.6734693877551021,
            -0.5510204081632653,
            -0.4285714285714288,
            -0.30612244897959195,
            -0.18367346938775508,
            -0.06122448979591866,
            0.06122448979591821,
            0.18367346938775508,
            0.30612244897959195,
            0.4285714285714284,
            0.5510204081632653,
            0.6734693877551021,
            0.7959183673469385,
            0.9183673469387754,
            1.0408163265306118,
            1.1632653061224492,
            1.2857142857142856,
            1.408163265306122,
            1.5306122448979593,
            1.6530612244897958,
            1.7755102040816322,
            1.8979591836734695,
            2.020408163265306,
            2.1428571428571423,
            2.2653061224489797,
            2.387755102040816,
            2.5102040816326525,
            2.63265306122449,
            2.7551020408163263,
            2.8775510204081627,
            3.0
          ],
          "truncated": false
        },
        "x_range": [
          -3.0,
          3.0
        ],
        "_scale": 1.2173657417297363,
        "_spline_order": 3,
        "_grid_size": 8
      },
      "shape_in": [
        16
      ],
      "shape_out": [
        16,
        4
      ]
    },
    {
      "id": 8,
      "op": "add",
      "name": "l1_merge",
      "inputs": [
        6,
        7
      ],
      "outputs": [
        9
      ],
      "attrs": {
        "scale_base": 1.6978758573532104,
        "scale_spline": 1.2173657417297363
      },
      "shape_in": [
        4
      ],
      "shape_out": [
        4
      ]
    },
    {
      "id": 9,
      "op": "softmax",
      "name": "softmax",
      "inputs": [
        8
      ],
      "outputs": [
        10
      ],
      "attrs": {},
      "shape_in": [
        4
      ],
      "shape_out": [
        4
      ]
    },
    {
      "id": 10,
      "op": "argmax",
      "name": "argmax",
      "inputs": [
        9
      ],
      "outputs": [],
      "attrs": {},
      "shape_in": [
        4
      ],
      "shape_out": [
        1
      ]
    }
  ]
}