{
  "name": "kan",
  "node_count": 11,
  "op_counts": {
    "matmul": 3,
    "standard_act": 2,
    "bspline_lut": 2,
    "add": 2,
    "softmax": 1,
    "argmax": 1
  },
  "nodes": [
    {
      "id": 0,
      "op": "matmul",
      "name": "input_features",
      "inputs": [],
      "outputs": [
        1,
        3
      ],
      "attrs": {
        "W": {
          "__type": "ndarray",
          "dtype": "float32",
          "shape": [
            28,
            28
          ],
          "data": [
            1.0,
            0.0,
            0.0,
            0.0,
            0.0,
            0.0,
            0.0,
            0.0,
            0.0,
            0.0,
            0.0,
            0.0,
            0.0,
            0.0,
            0.0,
            0.0,
            0.0,
            0.0,
            0.0,
            0.0,
            0.0,
            0.0,
            0.0,
            0.0,
            0.0,
            0.0,
            0.0,
            0.0,
            0.0,
            1.0,
            0.0,
            0.0,
            0.0,
            0.0,
            0.0,
            0.0,
            0.0,
            0.0,
            0.0,
            0.0,
            0.0,
            0.0,
            0.0,
            0.0,
            0.0,
            0.0,
            0.0,
            0.0,
            0.0,
            0.0,
            0.0,
            0.0,
            0.0,
            0.0,
            0.0,
            0.0,
            0.0,
            0.0,
            1.0,
            0.0,
            0.0,
            0.0,
            0.0,
            0.0,
            0.0,
            0.0,
            0.0,
            0.0,
            0.0,
            0.0,
            0.0,
            0.0,
            0.0,
            0.0,
            0.0,
            0.0,
            0.0,
            0.0,
            0.0,
            0.0,
            0.0,
            0.0,
            0.0,
            0.0,
            0.0,
            0.0,
            0.0,
            1.0,
            0.0,
            0.0,
            0.0,
            0.0,
            0.0,
            0.0,
            0.0,
            0.0,
            0.0,
            0.0,
            0.0,
            0.0
          ],
          "truncated": true
        },
        "b": {
          "__type": "ndarray",
          "dtype": "float32",
          "shape": [
            28
          ],
          "data": [
            0.0,
            0.0,
            0.0,
            0.0,
            0.0,
            0.0,
            0.0,
            0.0,
            0.0,
            0.0,
            0.0,
            0.0,
            0.0,
            0.0,
            0.0,
            0.0,
            0.0,
            0.0,
            0.0,
            0.0,
            0.0,
            0.0,
            0.0,
            0.0,
            0.0,
            0.0,
            0.0,
            0.0
          ],
          "truncated": false
        },
        "_virtual_input": true,
        "_folded": true
      },
      "shape_in": [
        28
      ],
      "shape_out": [
        28
      ]
    },
    {
      "id": 1,
      "op": "standard_act",
      "name": "l0_silu",
      "inputs": [
        0
      ],
      "outputs": [
        2
      ],
      "attrs": {
        "type": "silu",
        "_bypass_input": true
      },
      "shape_in": [
        28
      ],
      "shape_out": [
        28
      ]
    },
    {
      "id": 2,
      "op": "matmul",
      "name": "l0_base",
      "inputs": [
        1
      ],
      "outputs": [
        4
      ],
      "attrs": {
        "W": {
          "__type": "ndarray",
          "dtype": "float32",
          "shape": [
            16,
            28
          ],
          "data": [
            0.003739791689440608,
            -0.07565124332904816,
            0.0678476095199585,
            -0.017313510179519653,
            0.020317664369940758,
            0.012814982794225216,
            0.2199016809463501,
            -0.040586378425359726,
            0.15430186688899994,
            -0.01711619645357132,
            -0.08139785379171371,
            -0.17448316514492035,
            0.06769397109746933,
            -0.0669114738702774,
            -0.007377655245363712,
            0.12070702761411667,
            -0.03579186275601387,
            0.0774078294634819,
            -0.011963213793933392,
            0.06105850264430046,
            -0.1445322185754776,
            0.06947077810764313,
            -0.07600781321525574,
            -0.0556303970515728,
            -0.09183579683303833,
            -0.06100505217909813,
            -0.017348770052194595,
            -0.20519176125526428,
            -0.11136019229888916,
            0.156958669424057,
            -0.08071526885032654,
            0.06111239269375801,
            -0.08190647512674332,
            0.1461992859840393,
            0.03943075239658356,
            0.1511441320180893,
            0.04577377811074257,
            0.0030479261185973883,
            -0.11648177355527878,
            0.029290685430169106,
            0.0531366765499115,
            -0.06352497637271881,
            -0.04757407307624817,
            0.010271720588207245,
            0.1611303836107254,
            0.05136173591017723,
            0.08279848843812943,
            0.09436254948377609,
            -0.08640310913324356,
            0.02242521196603775,
            0.12585021555423737,
            0.011350887827575207,
            0.043028056621551514,
            0.1264932006597519,
            0.04679275304079056,
            0.008640027604997158,
            -0.19570352137088776,
            -0.01783011481165886,
            0.13590717315673828,
            -0.13897424936294556,
            -0.05278337001800537,
            0.05197400599718094,
            0.02668931894004345,
            0.2149273157119751,
            0.1003616452217102,
            -0.107454814016819,
            0.025134628638625145,
            -0.0009527524816803634,
            0.08675310015678406,
            0.03127902001142502,
            0.07090878486633301,
            0.05842169001698494,
            -0.008220359683036804,
            -0.020226359367370605,
            -0.11344756931066513,
            -0.017435619607567787,
            -0.0921066552400589,
            -0.014872967265546322,
            -0.01984541304409504,
            -0.09893534332513809,
            0.11437766999006271,
            0.11914525181055069,
            0.03011840023100376,
            -0.02765944041311741,
            -0.11738380044698715,
            0.06761511415243149,
            -0.1028825044631958,
            -0.043178196996450424,
            -0.04364586994051933,
            0.15960337221622467,
            -0.17436376214027405,
            0.08150629699230194,
            0.037103522568941116,
            -0.023026881739497185,
            -0.16240166127681732,
            -0.06035399064421654,
            0.03107287921011448,
            0.15404653549194336,
            -0.05638900399208069,
            -0.009235113859176636
          ],
          "truncated": true
        },
        "b": {
          "__type": "ndarray",
          "dtype": "float32",
          "shape": [
            16
          ],
          "data": [
            0.0,
            0.0,
            0.0,
            0.0,
            0.0,
            0.0,
            0.0,
            0.0,
            0.0,
            0.0,
            0.0,
            0.0,
            0.0,
            0.0,
            0.0,
            0.0
          ],
          "truncated": false
        },
        "_scale": 1.0
      },
      "shape_in": [
        28
      ],
      "shape_out": [
        16
      ]
    },
    {
      "id": 3,
      "op": "bspline_lut",
      "name": "l0_bspline",
      "inputs": [
        0
      ],
      "outputs": [
        4
      ],
      "attrs": {
        "table": {
          "__type": "ndarray",
          "dtype": "float32",
          "shape": [
            16,
            28,
            15
          ],
          "data": [
            2.968630906252656e-05,
            0.015941079705953598,
            0.03518274426460266,
            -0.04394011199474335,
            -0.10238182544708252,
            -0.11900916695594788,
            -0.12123925983905792,
            -0.10787831246852875,
            0.007797305006533861,
            0.04429631680250168,
            -0.037526488304138184,
            0.030798712745308876,
            0.06795457005500793,
            0.019360395148396492,
            3.59958503395319e-05,
            -2.502931783965323e-05,
            -0.013453454710543156,
            -0.04031912982463837,
            -0.03488333150744438,
            -0.06494969129562378,
            0.03801126778125763,
            0.13258415460586548,
            -0.046723902225494385,
            -0.018415816128253937,
            0.002511913888156414,
            -0.0827292948961258,
            -0.003016592003405094,
            0.023477355018258095,
            0.005501565523445606,
            1.0219156138191465e-05,
            -1.3922823200118728e-05,
            -0.007465115748345852,
            -0.007409240119159222,
            0.041027214378118515,
            0.005070675630122423,
            -0.030167993158102036,
            0.06627348065376282,
            0.049831800162792206,
            -0.015163657255470753,
            -0.013601859100162983,
            0.040579281747341156,
            0.006162295583635569,
            0.04413002356886864,
            0.017847338691353798,
            3.3225398510694504e-05,
            -2.071753806376364e-05,
            -0.011133836582303047,
            -0.03174256160855293,
            -0.014171179383993149,
            3.971706973970868e-05,
            0.05839460715651512,
            -0.02883635088801384,
            0.03789222985506058,
            0.007022197358310223,
            -0.09048131853342056,
            -0.0975249633193016,
            -0.04597119241952896,
            0.09613234549760818,
            0.0394972488284111,
            7.353326509473845e-05,
            -1.789276211638935e-05,
            -0.009576366282999516,
            0.0045458367094397545,
            0.10264217108488083,
            0.07816631346940994,
            0.08827442675828934,
            0.08541365712881088,
            0.053258348256349564,
            -0.0009562805062159896,
            -0.06668981164693832,
            -0.004251579754054546,
            -0.05351696535944939,
            0.026522379368543625,
            0.01803622953593731,
            3.3618667657719925e-05,
            3.375766391400248e-05,
            0.01816527545452118,
            0.0707981139421463,
            0.08129670470952988,
            0.0834127813577652,
            0.08584152907133102,
            -0.05406701937317848,
            -0.009824460372328758,
            -0.0007737980340607464,
            -0.01030977163463831,
            0.04663862660527229,
            0.060313109308481216,
            0.03663389012217522,
            0.007989519275724888,
            1.4834778994554654e-05,
            1.4018275578564499e-05,
            0.007543328683823347,
            0.029376115649938583,
            0.02341931313276291,
            -0.036560218781232834,
            -0.08953975886106491,
            0.004763113334774971,
            0.06858682632446289,
            0.039688896387815475,
            0.07408535480499268
          ],
          "truncated": true
        },
        "grid": {
          "__type": "ndarray",
          "dtype": "float64",
          "shape": [
            15
          ],
          "data": [
            -3.0,
            -2.5714285714285716,
            -2.142857142857143,
            -1.7142857142857144,
            -1.2857142857142858,
            -0.8571428571428572,
            -0.4285714285714288,
            0.0,
            0.4285714285714284,
            0.8571428571428568,
            1.2857142857142856,
            1.7142857142857144,
            2.1428571428571423,
            2.571428571428571,
            3.0
          ],
          "truncated": false
        },
        "x_range": [
          -3.0,
          3.0
        ],
        "_scale": 1.0,
        "_spline_order": 3,
        "_grid_size": 8,
        "_bypass_input": true
      },
      "shape_in": [
        28
      ],
      "shape_out": [
        28,
        16
      ]
    },
    {
      "id": 4,
      "op": "add",
      "name": "l0_merge",
      "inputs": [
        2,
        3
      ],
      "outputs": [
        5,
        7
      ],
      "attrs": {
        "scale_base": 1.0,
        "scale_spline": 1.0
      },
      "shape_in": [
        16
      ],
      "shape_out": [
        16
      ]
    },
    {
      "id": 5,
      "op": "standard_act",
      "name": "l1_silu",
      "inputs": [
        4
      ],
      "outputs": [
        6
      ],
      "attrs": {
        "type": "silu"
      },
      "shape_in": [
        16
      ],
      "shape_out": [
        16
      ]
    },
    {
      "id": 6,
      "op": "matmul",
      "name": "l1_base",
      "inputs": [
        5
      ],
      "outputs": [
        8
      ],
      "attrs": {
        "W": {
          "__type": "ndarray",
          "dtype": "float32",
          "shape": [
            4,
            16
          ],
          "data": [
            0.000185547090950422,
            0.03195865824818611,
            -0.2651025056838989,
            0.04487302526831627,
            0.09192359447479248,
            0.03351164981722832,
            0.10029124468564987,
            0.02856198512017727,
            0.06733442842960358,
            -0.039916131645441055,
            -0.11458851397037506,
            -0.07205624878406525,
            0.12382518500089645,
            -0.1077141985297203,
            -0.01352327037602663,
            0.06458041071891785,
            0.026372624561190605,
            -0.20372305810451508,
            -0.06655632704496384,
            0.14275388419628143,
            0.09531036764383316,
            0.015035757794976234,
            0.014759532175958157,
            0.013745546340942383,
            -0.1825994998216629,
            0.1289551854133606,
            -0.2687431275844574,
            0.024099018424749374,
            -0.07500217854976654,
            -0.09303601831197739,
            -0.04296092689037323,
            -0.0703527107834816,
            -0.023595647886395454,
            -0.007115037180483341,
            -0.04215908423066139,
            -0.005572205875068903,
            -0.05560348555445671,
            0.12786982953548431,
            -0.10659729689359665,
            0.10416173934936523,
            0.11945710331201553,
            0.05480668693780899,
            0.0787343680858612,
            -0.10457662492990494,
            0.2256486862897873,
            0.09002556651830673,
            -0.01797333173453808,
            0.13185136020183563,
            0.11102985590696335,
            0.055950649082660675,
            0.0864143818616867,
            -0.14435891807079315,
            0.11879552900791168,
            0.05337241291999817,
            -0.022229863330721855,
            0.049699459224939346,
            0.11444451659917831,
            -0.11467619240283966,
            -0.05434001609683037,
            -0.01929044909775257,
            -0.10466774553060532,
            0.07888329774141312,
            -0.009353267028927803,
            0.13193628191947937
          ],
          "truncated": false
        },
        "b": {
          "__type": "ndarray",
          "dtype": "float32",
          "shape": [
            4
          ],
          "data": [
            0.0,
            0.0,
            0.0,
            0.0
          ],
          "truncated": false
        },
        "_scale": 1.0
      },
      "shape_in": [
        16
      ],
      "shape_out": [
        4
      ]
    },
    {
      "id": 7,
      "op": "bspline_lut",
      "name": "l1_bspline",
      "inputs": [
        4
      ],
      "outputs": [
        8
      ],
      "attrs": {
        "table": {
          "__type": "ndarray",
          "dtype": "float32",
          "shape": [
            4,
            16,
            15
          ],
          "data": [
            5.797237463411875e-05,
            0.03109636716544628,
            0.04129134491086006,
            -0.0953001081943512,
            0.03821573778986931,
            -0.09170060604810715,
            -0.1313389539718628,
            -0.013554654084146023,
            0.00024013611255213618,
            -0.0695057064294815,
            -0.042804304510354996,
            -0.10595401376485825,
            -0.09043969213962555,
            -0.020893583074212074,
            -3.880707663483918e-05,
            6.767034210497513e-05,
            0.03632870316505432,
            0.07278507947921753,
            -0.05904334411025047,
            -0.00835918728262186,
            -0.08867576718330383,
            -0.013309250585734844,
            0.08720574527978897,
            -0.017108963802456856,
            0.0356915108859539,
            0.04586809128522873,
            -0.0308965016156435,
            -0.04704321548342705,
            -0.012253292836248875,
            -2.277266321470961e-05,
            -3.259400182287209e-05,
            -0.017501719295978546,
            -0.0380198173224926,
            0.05756993964314461,
            0.12277203798294067,
            0.07705935835838318,
            0.057481374591588974,
            0.054751574993133545,
            0.07946239411830902,
            -0.014441928826272488,
            0.11168048530817032,
            0.07257810980081558,
            -0.06539525091648102,
            -0.02899879403412342,
            -5.399986184784211e-05,
            -3.818111872533336e-05,
            -0.02049821801483631,
            -0.041690465062856674,
            0.013605340383946896,
            -0.09278468042612076,
            -0.07717956602573395,
            0.06758497655391693,
            0.005471069365739822,
            -0.0583551749587059,
            0.044903822243213654,
            0.004837537184357643,
            -0.01586400717496872,
            0.04674490913748741,
            0.01919645071029663,
            3.573859066818841e-05,
            1.0188992973780842e-06,
            0.0005507703754119575,
            0.004166257567703724,
            0.020210519433021545,
            0.028946656733751297,
            -0.052629951387643814,
            -0.0862070694565773,
            -0.01712713949382305,
            -0.0967625305056572,
            -0.08242801576852798,
            -0.09596087783575058,
            -0.07306655496358871,
            -0.11051161587238312,
            -0.03561578691005707,
            -6.625222158618271e-05,
            -3.757754166144878e-05,
            -0.020200397819280624,
            -0.06228068470954895,
            -0.037610895931720734,
            -0.04241606220602989,
            -0.0325067862868309,
            -0.054556433111429214,
            -0.033158548176288605,
            -0.06364259868860245,
            -0.05321130529046059,
            -0.07613833248615265,
            -0.00695611909031868,
            0.017934126779437065,
            0.00477717537432909,
            8.87925398274092e-06,
            -2.8169162760605104e-05,
            -0.015104120597243309,
            -0.015336442738771439,
            0.08167856186628342,
            0.0005463429843075573,
            -0.1321171224117279,
            -0.036555465310811996,
            0.03504078462719917,
            0.06740204244852066,
            0.026822878047823906
          ],
          "truncated": true
        },
        "grid": {
          "__type": "ndarray",
          "dtype": "float64",
          "shape": [
            15
          ],
          "data": [
            -3.0,
            -2.5714285714285716,
            -2.142857142857143,
            -1.7142857142857144,
            -1.2857142857142858,
            -0.8571428571428572,
            -0.4285714285714288,
            0.0,
            0.4285714285714284,
            0.8571428571428568,
            1.2857142857142856,
            1.7142857142857144,
            2.1428571428571423,
            2.571428571428571,
            3.0
          ],
          "truncated": false
        },
        "x_range": [
          -3.0,
          3.0
        ],
        "_scale": 1.0,
        "_spline_order": 3,
        "_grid_size": 8
      },
      "shape_in": [
        16
      ],
      "shape_out": [
        16,
        4
      ]
    },
    {
      "id": 8,
      "op": "add",
      "name": "l1_merge",
      "inputs": [
        6,
        7
      ],
      "outputs": [
        9
      ],
      "attrs": {
        "scale_base": 1.0,
        "scale_spline": 1.0
      },
      "shape_in": [
        4
      ],
      "shape_out": [
        4
      ]
    },
    {
      "id": 9,
      "op": "softmax",
      "name": "softmax",
      "inputs": [
        8
      ],
      "outputs": [
        10
      ],
      "attrs": {},
      "shape_in": [
        4
      ],
      "shape_out": [
        4
      ]
    },
    {
      "id": 10,
      "op": "argmax",
      "name": "argmax",
      "inputs": [
        9
      ],
      "outputs": [],
      "attrs": {},
      "shape_in": [
        4
      ],
      "shape_out": [
        1
      ]
    }
  ]
}