{
  "name": "mlp",
  "node_count": 8,
  "op_counts": {
    "matmul": 4,
    "standard_act": 2,
    "softmax": 1,
    "argmax": 1
  },
  "nodes": [
    {
      "id": 0,
      "op": "matmul",
      "name": "input_features",
      "inputs": [],
      "outputs": [
        1
      ],
      "attrs": {
        "W": {
          "__type": "ndarray",
          "dtype": "float32",
          "shape": [
            28,
            28
          ],
          "data": [
            1.0,
            0.0,
            0.0,
            0.0,
            0.0,
            0.0,
            0.0,
            0.0,
            0.0,
            0.0,
            0.0,
            0.0,
            0.0,
            0.0,
            0.0,
            0.0,
            0.0,
            0.0,
            0.0,
            0.0,
            0.0,
            0.0,
            0.0,
            0.0,
            0.0,
            0.0,
            0.0,
            0.0,
            0.0,
            1.0,
            0.0,
            0.0,
            0.0,
            0.0,
            0.0,
            0.0,
            0.0,
            0.0,
            0.0,
            0.0,
            0.0,
            0.0,
            0.0,
            0.0,
            0.0,
            0.0,
            0.0,
            0.0,
            0.0,
            0.0,
            0.0,
            0.0,
            0.0,
            0.0,
            0.0,
            0.0,
            0.0,
            0.0,
            1.0,
            0.0,
            0.0,
            0.0,
            0.0,
            0.0,
            0.0,
            0.0,
            0.0,
            0.0,
            0.0,
            0.0,
            0.0,
            0.0,
            0.0,
            0.0,
            0.0,
            0.0,
            0.0,
            0.0,
            0.0,
            0.0,
            0.0,
            0.0,
            0.0,
            0.0,
            0.0,
            0.0,
            0.0,
            1.0,
            0.0,
            0.0,
            0.0,
            0.0,
            0.0,
            0.0,
            0.0,
            0.0,
            0.0,
            0.0,
            0.0,
            0.0
          ],
          "truncated": true
        },
        "b": {
          "__type": "ndarray",
          "dtype": "float32",
          "shape": [
            28
          ],
          "data": [
            0.0,
            0.0,
            0.0,
            0.0,
            0.0,
            0.0,
            0.0,
            0.0,
            0.0,
            0.0,
            0.0,
            0.0,
            0.0,
            0.0,
            0.0,
            0.0,
            0.0,
            0.0,
            0.0,
            0.0,
            0.0,
            0.0,
            0.0,
            0.0,
            0.0,
            0.0,
            0.0,
            0.0
          ],
          "truncated": false
        },
        "_virtual_input": true,
        "_folded": true
      },
      "shape_in": [
        28
      ],
      "shape_out": [
        28
      ]
    },
    {
      "id": 1,
      "op": "matmul",
      "name": "fc0",
      "inputs": [
        0
      ],
      "outputs": [
        2
      ],
      "attrs": {
        "W": {
          "__type": "ndarray",
          "dtype": "float32",
          "shape": [
            32,
            28
          ],
          "data": [
            -0.37700778245925903,
            0.39902639389038086,
            0.0025516152381896973,
            -0.3593161702156067,
            0.13664954900741577,
            -0.19002845883369446,
            0.38918524980545044,
            -0.1283031404018402,
            -0.35505497455596924,
            0.1385999321937561,
            -0.18550890684127808,
            -0.3235316872596741,
            0.03772157430648804,
            0.04378855228424072,
            -0.21972578763961792,
            0.2710523009300232,
            0.45273059606552124,
            -0.1735796332359314,
            0.09180021286010742,
            -0.22199304401874542,
            -0.06822887063026428,
            0.37269848585128784,
            -0.4032512903213501,
            0.3372299075126648,
            0.17428654432296753,
            0.23198926448822021,
            -0.25492212176322937,
            -0.3851187825202942,
            -0.33593320846557617,
            -0.21090498566627502,
            0.2084537148475647,
            -0.2210155874490738,
            0.230726420879364,
            -0.06881082057952881,
            -0.21073496341705322,
            -0.13105639815330505,
            0.36180102825164795,
            -0.461658775806427,
            0.11293786764144897,
            -0.10058271884918213,
            0.25745105743408203,
            0.35097646713256836,
            -0.40439343452453613,
            0.02686840295791626,
            0.241463303565979,
            -0.30124950408935547,
            -0.12148603796958923,
            0.18263310194015503,
            0.13232892751693726,
            -0.05770009756088257,
            -0.2709420621395111,
            -0.16414988040924072,
            0.2732217311859131,
            0.24410396814346313,
            -0.030885428190231323,
            0.37656551599502563,
            0.45752882957458496,
            0.10059219598770142,
            0.3384549617767334,
            0.31641197204589844,
            -0.04325345158576965,
            0.3674217462539673,
            0.29297739267349243,
            0.28699642419815063,
            0.40562987327575684,
            0.2586456537246704,
            0.215961754322052,
            -0.011189490556716919,
            0.2763611674308777,
            0.03186911344528198,
            -0.23832307755947113,
            -0.23751115798950195,
            0.19505798816680908,
            0.21835845708847046,
            0.14304238557815552,
            0.16428178548812866,
            0.42287153005599976,
            0.009387224912643433,
            -0.12285944819450378,
            0.24011152982711792,
            0.39536893367767334,
            -0.16194266080856323,
            -0.2964523136615753,
            0.24099010229110718,
            0.06094181537628174,
            0.3946368098258972,
            0.41261523962020874,
            -0.3121379017829895,
            -0.3586195707321167,
            -0.112760990858078,
            0.18670785427093506,
            0.3760083317756653,
            0.15643280744552612,
            0.10402226448059082,
            0.001730501651763916,
            0.22512668371200562,
            0.01160380244255066,
            -0.29018235206604004,
            -0.04856869578361511,
            -0.036271363496780396
          ],
          "truncated": true
        },
        "b": {
          "__type": "ndarray",
          "dtype": "float32",
          "shape": [
            32
          ],
          "data": [
            0.0,
            0.0,
            0.0,
            0.0,
            0.0,
            0.0,
            0.0,
            0.0,
            0.0,
            0.0,
            0.0,
            0.0,
            0.0,
            0.0,
            0.0,
            0.0,
            0.0,
            0.0,
            0.0,
            0.0,
            0.0,
            0.0,
            0.0,
            0.0,
            0.0,
            0.0,
            0.0,
            0.0,
            0.0,
            0.0,
            0.0,
            0.0
          ],
          "truncated": false
        },
        "_bypass_input": true
      },
      "shape_in": [
        28
      ],
      "shape_out": [
        32
      ]
    },
    {
      "id": 2,
      "op": "standard_act",
      "name": "relu0",
      "inputs": [
        1
      ],
      "outputs": [
        3
      ],
      "attrs": {
        "type": "relu"
      },
      "shape_in": [
        32
      ],
      "shape_out": [
        32
      ]
    },
    {
      "id": 3,
      "op": "matmul",
      "name": "fc1",
      "inputs": [
        2
      ],
      "outputs": [
        4
      ],
      "attrs": {
        "W": {
          "__type": "ndarray",
          "dtype": "float32",
          "shape": [
            16,
            32
          ],
          "data": [
            -0.3935522437095642,
            -0.18915677070617676,
            -0.24448814988136292,
            -0.25209882855415344,
            0.016873985528945923,
            -0.0661420226097107,
            -0.07398355007171631,
            0.12492343783378601,
            0.04958406090736389,
            -0.332436203956604,
            0.39901992678642273,
            -0.38279712200164795,
            0.15093442797660828,
            0.2727350890636444,
            0.18990638852119446,
            0.12325480580329895,
            -0.17409765720367432,
            0.3996814787387848,
            -0.015619009733200073,
            0.431953102350235,
            0.23045191168785095,
            0.20196190476417542,
            -0.11082881689071655,
            0.2639450132846832,
            -0.3004888892173767,
            0.20537588000297546,
            -0.25071296095848083,
            -0.1099107563495636,
            0.35085538029670715,
            0.2798605263233185,
            0.3080718219280243,
            -0.2521698474884033,
            0.03983607888221741,
            0.0467715859413147,
            0.3878656327724457,
            -0.09759745001792908,
            0.22591260075569153,
            -0.21300217509269714,
            0.28177061676979065,
            -0.42081668972969055,
            0.291708379983902,
            0.4064464271068573,
            0.17183414101600647,
            0.14499494433403015,
            -0.24515919387340546,
            0.22019383311271667,
            -0.16025769710540771,
            -0.382280170917511,
            -0.11502259969711304,
            -0.2497749775648117,
            -0.4201412498950958,
            -0.015625834465026855,
            -0.15112334489822388,
            -0.3021594285964966,
            -0.1100701093673706,
            0.38514360785484314,
            -0.2900416851043701,
            0.1651724874973297,
            0.27255699038505554,
            -0.2857571244239807,
            -0.11594241857528687,
            0.3958911597728729,
            -0.407633900642395,
            0.21557536721229553,
            -0.3153984844684601,
            0.152284175157547,
            0.22386756539344788,
            0.03599366545677185,
            -0.29888707399368286,
            -0.16379690170288086,
            0.23203381896018982,
            0.08573678135871887,
            0.19762083888053894,
            0.06086325645446777,
            -0.1173250675201416,
            -0.32136407494544983,
            -0.08491599559783936,
            0.1718495786190033,
            0.18794342875480652,
            0.3173547685146332,
            0.17762884497642517,
            -0.28598880767822266,
            0.427363783121109,
            -0.07536596059799194,
            0.2396644651889801,
            -0.1966574490070343,
            0.39415642619132996,
            -0.4111311435699463,
            0.40314093232154846,
            0.338238924741745,
            0.28273656964302063,
            0.3812201917171478,
            -0.40180113911628723,
            0.226899653673172,
            -0.4327544867992401,
            0.05624663829803467,
            -0.41812747716903687,
            0.08953610062599182,
            0.021575927734375,
            -0.4292598366737366
          ],
          "truncated": true
        },
        "b": {
          "__type": "ndarray",
          "dtype": "float32",
          "shape": [
            16
          ],
          "data": [
            0.0,
            0.0,
            0.0,
            0.0,
            0.0,
            0.0,
            0.0,
            0.0,
            0.0,
            0.0,
            0.0,
            0.0,
            0.0,
            0.0,
            0.0,
            0.0
          ],
          "truncated": false
        }
      },
      "shape_in": [
        32
      ],
      "shape_out": [
        16
      ]
    },
    {
      "id": 4,
      "op": "standard_act",
      "name": "relu1",
      "inputs": [
        3
      ],
      "outputs": [
        5
      ],
      "attrs": {
        "type": "relu"
      },
      "shape_in": [
        16
      ],
      "shape_out": [
        16
      ]
    },
    {
      "id": 5,
      "op": "matmul",
      "name": "fc2",
      "inputs": [
        4
      ],
      "outputs": [
        6
      ],
      "attrs": {
        "W": {
          "__type": "ndarray",
          "dtype": "float32",
          "shape": [
            4,
            16
          ],
          "data": [
            0.31192493438720703,
            -0.6119897961616516,
            0.257021427154541,
            -0.5775460600852966,
            -0.3303459584712982,
            -0.02268928289413452,
            -0.025358855724334717,
            0.01330411434173584,
            0.21192258596420288,
            0.17956578731536865,
            0.11644637584686279,
            -0.5784834623336792,
            0.41023486852645874,
            -0.5724206566810608,
            -0.5247187614440918,
            0.2892719507217407,
            0.07108020782470703,
            0.40889865159988403,
            -0.40115949511528015,
            0.19272661209106445,
            0.022778630256652832,
            -0.3939465880393982,
            0.5633334517478943,
            0.4811944365501404,
            0.4671021103858948,
            -0.40388306975364685,
            0.20767682790756226,
            -0.5081061124801636,
            0.16204828023910522,
            -0.2713509202003479,
            0.4681324362754822,
            0.3022300601005554,
            0.3770372271537781,
            -0.5370516777038574,
            -0.19284895062446594,
            0.08729994297027588,
            -0.08238381147384644,
            -0.23228323459625244,
            0.09537369012832642,
            -0.06331002712249756,
            -0.24656447768211365,
            0.4775037169456482,
            0.526802122592926,
            -0.11629530787467957,
            -0.32300007343292236,
            0.23171931505203247,
            0.20547568798065186,
            -0.4918106198310852,
            0.25004321336746216,
            -0.1568022072315216,
            -0.4481697678565979,
            0.37459564208984375,
            -0.04582500457763672,
            -0.5208439826965332,
            0.1315343976020813,
            0.3012816309928894,
            0.40468376874923706,
            -0.6074986457824707,
            0.09475821256637573,
            -0.3567926585674286,
            0.056140899658203125,
            0.19939571619033813,
            0.10986673831939697,
            0.0024995803833007812
          ],
          "truncated": false
        },
        "b": {
          "__type": "ndarray",
          "dtype": "float32",
          "shape": [
            4
          ],
          "data": [
            0.0,
            0.0,
            0.0,
            0.0
          ],
          "truncated": false
        }
      },
      "shape_in": [
        16
      ],
      "shape_out": [
        4
      ]
    },
    {
      "id": 6,
      "op": "softmax",
      "name": "softmax",
      "inputs": [
        5
      ],
      "outputs": [
        7
      ],
      "attrs": {},
      "shape_in": [
        4
      ],
      "shape_out": [
        4
      ]
    },
    {
      "id": 7,
      "op": "argmax",
      "name": "argmax",
      "inputs": [
        6
      ],
      "outputs": [],
      "attrs": {},
      "shape_in": [
        4
      ],
      "shape_out": [
        1
      ]
    }
  ]
}