{
  "name": "kan",
  "node_count": 11,
  "op_counts": {
    "matmul": 3,
    "standard_act": 2,
    "bspline_lut": 2,
    "add": 2,
    "softmax": 1,
    "argmax": 1
  },
  "nodes": [
    {
      "id": 0,
      "op": "matmul",
      "name": "input_features",
      "inputs": [],
      "outputs": [
        1,
        3
      ],
      "attrs": {
        "W": {
          "__type": "ndarray",
          "dtype": "float32",
          "shape": [
            28,
            28
          ],
          "data": [
            1.0,
            0.0,
            0.0,
            0.0,
            0.0,
            0.0,
            0.0,
            0.0,
            0.0,
            0.0,
            0.0,
            0.0,
            0.0,
            0.0,
            0.0,
            0.0,
            0.0,
            0.0,
            0.0,
            0.0,
            0.0,
            0.0,
            0.0,
            0.0,
            0.0,
            0.0,
            0.0,
            0.0,
            0.0,
            1.0,
            0.0,
            0.0,
            0.0,
            0.0,
            0.0,
            0.0,
            0.0,
            0.0,
            0.0,
            0.0,
            0.0,
            0.0,
            0.0,
            0.0,
            0.0,
            0.0,
            0.0,
            0.0,
            0.0,
            0.0,
            0.0,
            0.0,
            0.0,
            0.0,
            0.0,
            0.0,
            0.0,
            0.0,
            1.0,
            0.0,
            0.0,
            0.0,
            0.0,
            0.0,
            0.0,
            0.0,
            0.0,
            0.0,
            0.0,
            0.0,
            0.0,
            0.0,
            0.0,
            0.0,
            0.0,
            0.0,
            0.0,
            0.0,
            0.0,
            0.0,
            0.0,
            0.0,
            0.0,
            0.0,
            0.0,
            0.0,
            0.0,
            1.0,
            0.0,
            0.0,
            0.0,
            0.0,
            0.0,
            0.0,
            0.0,
            0.0,
            0.0,
            0.0,
            0.0,
            0.0
          ],
          "truncated": true
        },
        "b": {
          "__type": "ndarray",
          "dtype": "float32",
          "shape": [
            28
          ],
          "data": [
            0.0,
            0.0,
            0.0,
            0.0,
            0.0,
            0.0,
            0.0,
            0.0,
            0.0,
            0.0,
            0.0,
            0.0,
            0.0,
            0.0,
            0.0,
            0.0,
            0.0,
            0.0,
            0.0,
            0.0,
            0.0,
            0.0,
            0.0,
            0.0,
            0.0,
            0.0,
            0.0,
            0.0
          ],
          "truncated": false
        },
        "_virtual_input": true
      },
      "shape_in": [
        28
      ],
      "shape_out": [
        28
      ]
    },
    {
      "id": 1,
      "op": "standard_act",
      "name": "l0_silu",
      "inputs": [
        0
      ],
      "outputs": [
        2
      ],
      "attrs": {
        "type": "silu"
      },
      "shape_in": [
        28
      ],
      "shape_out": [
        28
      ]
    },
    {
      "id": 2,
      "op": "matmul",
      "name": "l0_base",
      "inputs": [
        1
      ],
      "outputs": [
        4
      ],
      "attrs": {
        "W": {
          "__type": "ndarray",
          "dtype": "float32",
          "shape": [
            16,
            28
          ],
          "data": [
            0.382510781288147,
            0.04853701964020729,
            0.1553128957748413,
            -0.03227508068084717,
            -0.07846493273973465,
            -0.09799130260944366,
            0.030095703899860382,
            0.08842623233795166,
            0.4441010355949402,
            0.4753721058368683,
            0.0841904953122139,
            0.5709859728813171,
            -0.11695124208927155,
            0.027950990945100784,
            -0.4520209729671478,
            0.059762824326753616,
            -0.06234819442033768,
            0.3703407049179077,
            0.21425554156303406,
            -0.0983414500951767,
            0.10508495569229126,
            -0.16630907356739044,
            0.008821215480566025,
            0.419525682926178,
            0.1522815078496933,
            0.19868804514408112,
            0.15109193325042725,
            -0.12824265658855438,
            0.37123823165893555,
            0.11460598558187485,
            0.15424224734306335,
            0.11711262911558151,
            0.20557887852191925,
            0.35199445486068726,
            0.007234365679323673,
            -0.08270914107561111,
            0.3385513424873352,
            -0.06981191039085388,
            -0.21524573862552643,
            -0.25109684467315674,
            -0.046461354941129684,
            0.28372424840927124,
            0.1521953046321869,
            -0.2826805114746094,
            0.2372487634420395,
            0.22683030366897583,
            -0.003456301521509886,
            -0.37204328179359436,
            0.26299789547920227,
            0.2415776252746582,
            0.3191497325897217,
            -0.21848097443580627,
            0.3111473321914673,
            -0.010501999408006668,
            0.0376962274312973,
            0.11901582777500153,
            0.3232971131801605,
            0.4169890284538269,
            0.5698181390762329,
            -0.18659059703350067,
            -0.3292018175125122,
            -0.032937489449977875,
            0.22447486221790314,
            0.07214023917913437,
            -0.015265161171555519,
            -0.016636153683066368,
            0.3252052962779999,
            0.6891209483146667,
            -0.04151606559753418,
            0.10341015458106995,
            -0.35471710562705994,
            -0.2161654382944107,
            -0.43911388516426086,
            0.4122617244720459,
            0.013041852042078972,
            0.17918238043785095,
            0.11262675374746323,
            -0.24667546153068542,
            -0.11459647119045258,
            0.4281023144721985,
            -0.04512915760278702,
            -0.03434712067246437,
            0.29102566838264465,
            -0.20159654319286346,
            0.07365244626998901,
            -0.15992407500743866,
            -0.15552279353141785,
            0.1631235033273697,
            0.4105035960674286,
            0.06496869772672653,
            0.06967805325984955,
            -0.014499031007289886,
            0.03221243619918823,
            -0.24270088970661163,
            0.021624485030770302,
            -0.37949198484420776,
            0.22266827523708344,
            0.015356939285993576,
            0.5966946482658386,
            0.2662281095981598
          ],
          "truncated": true
        },
        "b": {
          "__type": "ndarray",
          "dtype": "float32",
          "shape": [
            16
          ],
          "data": [
            0.0,
            0.0,
            0.0,
            0.0,
            0.0,
            0.0,
            0.0,
            0.0,
            0.0,
            0.0,
            0.0,
            0.0,
            0.0,
            0.0,
            0.0,
            0.0
          ],
          "truncated": false
        },
        "_scale": 1.3714993000030518
      },
      "shape_in": [
        28
      ],
      "shape_out": [
        16
      ]
    },
    {
      "id": 3,
      "op": "bspline_lut",
      "name": "l0_bspline",
      "inputs": [
        0
      ],
      "outputs": [
        4
      ],
      "attrs": {
        "table": {
          "__type": "ndarray",
          "dtype": "float32",
          "shape": [
            16,
            28,
            15
          ],
          "data": [
            -0.053761404007673264,
            -0.050150733441114426,
            -0.04660085216164589,
            -0.04310857132077217,
            -0.03967069834470749,
            -0.03628407046198845,
            -0.03294549137353897,
            -0.029651787132024765,
            -0.026399774476885796,
            -0.023186270147562027,
            -0.02000809647142887,
            -0.0168620552867651,
            -0.013744985684752464,
            -0.010653692297637463,
            -0.007585001643747091,
            0.0036137280985713005,
            0.008796638809144497,
            0.0140219172462821,
            0.019275257363915443,
            0.024542422965168953,
            0.02980910614132881,
            0.0350610576570034,
            0.04028399661183357,
            0.04546363279223442,
            0.05058571696281433,
            0.05563594028353691,
            0.060600072145462036,
            0.06546381115913391,
            0.07021288573741913,
            0.07483302801847458,
            0.017791416496038437,
            0.02043396420776844,
            0.023039331659674644,
            0.025608694180846214,
            0.028143268078565598,
            0.030644239857792854,
            0.033112816512584686,
            0.03555019199848175,
            0.03795755282044411,
            0.040336113423109055,
            0.04268704354763031,
            0.045011576265096664,
            0.04731088504195213,
            0.04958617687225342,
            0.05183864012360573,
            0.09116943180561066,
            0.0932299867272377,
            0.09519179910421371,
            0.09704473614692688,
            0.09877879172563553,
            0.10038387775421143,
            0.10184995085000992,
            0.10316691547632217,
            0.10432473570108414,
            0.10531333833932877,
            0.10612263530492783,
            0.10674262046813965,
            0.10716318339109421,
            0.10737427324056625,
            0.10736582428216934,
            0.162152960896492,
            0.16242645680904388,
            0.1625150740146637,
            0.1624206006526947,
            0.1621449887752533,
            0.16169001162052155,
            0.16105760633945465,
            0.16024956107139587,
            0.15926779806613922,
            0.15811413526535034,
            0.15679042041301727,
            0.15529853105545044,
            0.15364034473896027,
            0.1518176943063736,
            0.14983244240283966,
            0.023589372634887695,
            0.019966954365372658,
            0.016292639076709747,
            0.012581347487866879,
            0.008847997523844242,
            0.005107522942125797,
            0.0013748274650424719,
            -0.0023351639974862337,
            -0.006007523275911808,
            -0.00962733756750822,
            -0.013179673813283443,
            -0.0166496429592371,
            -0.020022287964820862,
            -0.02328271046280861,
            -0.026415977627038956,
            0.0037644808180630207,
            0.004910603165626526,
            0.0061689382418990135,
            0.007539096754044294,
            0.009020699188113213,
            0.010613356716930866,
            0.012316691689193249,
            0.014130313880741596,
            0.016053836792707443,
            0.018086884170770645
          ],
          "truncated": true
        },
        "grid": {
          "__type": "ndarray",
          "dtype": "float64",
          "shape": [
            15
          ],
          "data": [
            -3.0,
            -2.5714285714285716,
            -2.142857142857143,
            -1.7142857142857144,
            -1.2857142857142858,
            -0.8571428571428572,
            -0.4285714285714288,
            0.0,
            0.4285714285714284,
            0.8571428571428568,
            1.2857142857142856,
            1.7142857142857144,
            2.1428571428571423,
            2.571428571428571,
            3.0
          ],
          "truncated": false
        },
        "x_range": [
          -3.0,
          3.0
        ],
        "_scale": 1.3828383684158325,
        "_spline_order": 3,
        "_grid_size": 8
      },
      "shape_in": [
        28
      ],
      "shape_out": [
        28,
        16
      ]
    },
    {
      "id": 4,
      "op": "add",
      "name": "l0_merge",
      "inputs": [
        2,
        3
      ],
      "outputs": [
        5,
        7
      ],
      "attrs": {
        "scale_base": 1.3714993000030518,
        "scale_spline": 1.3828383684158325
      },
      "shape_in": [
        16
      ],
      "shape_out": [
        16
      ]
    },
    {
      "id": 5,
      "op": "standard_act",
      "name": "l1_silu",
      "inputs": [
        4
      ],
      "outputs": [
        6
      ],
      "attrs": {
        "type": "silu"
      },
      "shape_in": [
        16
      ],
      "shape_out": [
        16
      ]
    },
    {
      "id": 6,
      "op": "matmul",
      "name": "l1_base",
      "inputs": [
        5
      ],
      "outputs": [
        8
      ],
      "attrs": {
        "W": {
          "__type": "ndarray",
          "dtype": "float32",
          "shape": [
            4,
            16
          ],
          "data": [
            -0.28248757123947144,
            -0.6565905809402466,
            -0.3122313320636749,
            0.33304086327552795,
            -0.24125711619853973,
            -0.12092148512601852,
            -0.15491560101509094,
            0.021922877058386803,
            -0.7318158745765686,
            -0.37823039293289185,
            0.1660175323486328,
            -0.48632150888442993,
            0.17867660522460938,
            0.17792607843875885,
            0.19666756689548492,
            0.04885479435324669,
            0.05753928795456886,
            0.35883480310440063,
            -0.11768009513616562,
            0.2243771255016327,
            0.056337662041187286,
            0.34746333956718445,
            0.24061889946460724,
            -0.3899010419845581,
            -0.18435293436050415,
            0.2943885624408722,
            -0.3224227726459503,
            -0.3371529281139374,
            -0.3695943355560303,
            -0.05328688025474548,
            -0.5337852835655212,
            -0.5914542078971863,
            0.14878572523593903,
            0.10353317856788635,
            -0.13141579926013947,
            -0.23671039938926697,
            0.3866916596889496,
            -0.0002227156364824623,
            -0.2907900810241699,
            -0.028453614562749863,
            0.2614560127258301,
            0.044842008501291275,
            0.34635719656944275,
            0.3907122313976288,
            0.36323949694633484,
            -0.45342227816581726,
            0.4758949279785156,
            0.07942814379930496,
            0.3638572096824646,
            -0.2039453387260437,
            0.4670161008834839,
            -0.18606162071228027,
            -0.35695919394493103,
            -0.4310024380683899,
            0.2556135952472687,
            0.3338891267776489,
            0.23002813756465912,
            -0.06790602207183838,
            -0.39590904116630554,
            -0.1938803642988205,
            0.34766682982444763,
            0.12426221370697021,
            -0.3246959447860718,
            -0.09314955770969391
          ],
          "truncated": false
        },
        "b": {
          "__type": "ndarray",
          "dtype": "float32",
          "shape": [
            4
          ],
          "data": [
            0.0,
            0.0,
            0.0,
            0.0
          ],
          "truncated": false
        },
        "_scale": 1.3939017057418823
      },
      "shape_in": [
        16
      ],
      "shape_out": [
        4
      ]
    },
    {
      "id": 7,
      "op": "bspline_lut",
      "name": "l1_bspline",
      "inputs": [
        4
      ],
      "outputs": [
        8
      ],
      "attrs": {
        "table": {
          "__type": "ndarray",
          "dtype": "float32",
          "shape": [
            4,
            16,
            15
          ],
          "data": [
            -0.13942334055900574,
            -0.14118091762065887,
            -0.14293116331100464,
            -0.14467297494411469,
            -0.14640523493289948,
            -0.14812692999839783,
            -0.14983686804771423,
            -0.15153402090072632,
            -0.15321728587150574,
            -0.15488556027412415,
            -0.156537726521492,
            -0.15817272663116455,
            -0.15978947281837463,
            -0.16138683259487152,
            -0.16296376287937164,
            -0.07945520430803299,
            -0.08164182305335999,
            -0.08373881876468658,
            -0.08574768155813217,
            -0.08766984939575195,
            -0.0895068496465683,
            -0.09126009792089462,
            -0.0929311066865921,
            -0.09452134370803833,
            -0.09603224694728851,
            -0.09746531397104263,
            -0.09882199764251709,
            -0.10010380297899246,
            -0.10131218284368515,
            -0.10244859009981155,
            -0.12524552643299103,
            -0.12554466724395752,
            -0.12580709159374237,
            -0.12603320181369781,
            -0.1262233853340149,
            -0.12637807428836823,
            -0.12649762630462646,
            -0.12658245861530304,
            -0.12663300335407257,
            -0.12664960324764252,
            -0.1266326755285263,
            -0.12658260762691498,
            -0.12649983167648315,
            -0.12638472020626068,
            -0.1262376755475998,
            -0.07997506111860275,
            -0.07874086499214172,
            -0.07745438069105148,
            -0.07611715793609619,
            -0.07473068684339523,
            -0.07329653203487396,
            -0.07181622087955475,
            -0.07029125839471817,
            -0.06872319430112839,
            -0.06711355596780777,
            -0.06546386331319809,
            -0.06377565860748291,
            -0.062050458043813705,
            -0.060289811342954636,
            -0.05849521979689598,
            -0.10702251642942429,
            -0.10886429995298386,
            -0.11067765951156616,
            -0.11246169358491898,
            -0.11421546339988708,
            -0.11593814194202423,
            -0.11762875318527222,
            -0.119286447763443,
            -0.12091031670570374,
            -0.12249944359064102,
            -0.12405291944742203,
            -0.12556983530521393,
            -0.12704935669898987,
            -0.12849052250385284,
            -0.12989243865013123,
            0.017709486186504364,
            0.017548324540257454,
            0.017415694892406464,
            0.017310818657279015,
            0.01723294146358967,
            0.01718130148947239,
            0.017155131325125694,
            0.017153671011328697,
            0.017176160588860512,
            0.017221828922629356,
            0.017289919778704643,
            0.01737966202199459,
            0.01749030314385891,
            0.017621075734496117,
            0.017771217972040176,
            -0.018207503482699394,
            -0.018558552488684654,
            -0.01890776865184307,
            -0.019255151972174644,
            -0.01960068754851818,
            -0.019944388419389725,
            -0.020286235958337784,
            -0.020626239478588104,
            -0.02096438966691494,
            -0.02130068838596344
          ],
          "truncated": true
        },
        "grid": {
          "__type": "ndarray",
          "dtype": "float64",
          "shape": [
            15
          ],
          "data": [
            -3.0,
            -2.5714285714285716,
            -2.142857142857143,
            -1.7142857142857144,
            -1.2857142857142858,
            -0.8571428571428572,
            -0.4285714285714288,
            0.0,
            0.4285714285714284,
            0.8571428571428568,
            1.2857142857142856,
            1.7142857142857144,
            2.1428571428571423,
            2.571428571428571,
            3.0
          ],
          "truncated": false
        },
        "x_range": [
          -3.0,
          3.0
        ],
        "_scale": 1.1271147727966309,
        "_spline_order": 3,
        "_grid_size": 8
      },
      "shape_in": [
        16
      ],
      "shape_out": [
        16,
        4
      ]
    },
    {
      "id": 8,
      "op": "add",
      "name": "l1_merge",
      "inputs": [
        6,
        7
      ],
      "outputs": [
        9
      ],
      "attrs": {
        "scale_base": 1.3939017057418823,
        "scale_spline": 1.1271147727966309
      },
      "shape_in": [
        4
      ],
      "shape_out": [
        4
      ]
    },
    {
      "id": 9,
      "op": "softmax",
      "name": "softmax",
      "inputs": [
        8
      ],
      "outputs": [
        10
      ],
      "attrs": {},
      "shape_in": [
        4
      ],
      "shape_out": [
        4
      ]
    },
    {
      "id": 10,
      "op": "argmax",
      "name": "argmax",
      "inputs": [
        9
      ],
      "outputs": [],
      "attrs": {},
      "shape_in": [
        4
      ],
      "shape_out": [
        1
      ]
    }
  ]
}