{
  "name": "kan",
  "node_count": 11,
  "op_counts": {
    "matmul": 3,
    "standard_act": 2,
    "bspline_lut": 2,
    "add": 2,
    "softmax": 1,
    "argmax": 1
  },
  "nodes": [
    {
      "id": 0,
      "op": "matmul",
      "name": "input_features",
      "inputs": [],
      "outputs": [
        1,
        3
      ],
      "attrs": {
        "W": {
          "__type": "ndarray",
          "dtype": "float32",
          "shape": [
            28,
            28
          ],
          "data": [
            1.0,
            0.0,
            0.0,
            0.0,
            0.0,
            0.0,
            0.0,
            0.0,
            0.0,
            0.0,
            0.0,
            0.0,
            0.0,
            0.0,
            0.0,
            0.0,
            0.0,
            0.0,
            0.0,
            0.0,
            0.0,
            0.0,
            0.0,
            0.0,
            0.0,
            0.0,
            0.0,
            0.0,
            0.0,
            1.0,
            0.0,
            0.0,
            0.0,
            0.0,
            0.0,
            0.0,
            0.0,
            0.0,
            0.0,
            0.0,
            0.0,
            0.0,
            0.0,
            0.0,
            0.0,
            0.0,
            0.0,
            0.0,
            0.0,
            0.0,
            0.0,
            0.0,
            0.0,
            0.0,
            0.0,
            0.0,
            0.0,
            0.0,
            1.0,
            0.0,
            0.0,
            0.0,
            0.0,
            0.0,
            0.0,
            0.0,
            0.0,
            0.0,
            0.0,
            0.0,
            0.0,
            0.0,
            0.0,
            0.0,
            0.0,
            0.0,
            0.0,
            0.0,
            0.0,
            0.0,
            0.0,
            0.0,
            0.0,
            0.0,
            0.0,
            0.0,
            0.0,
            1.0,
            0.0,
            0.0,
            0.0,
            0.0,
            0.0,
            0.0,
            0.0,
            0.0,
            0.0,
            0.0,
            0.0,
            0.0
          ],
          "truncated": true
        },
        "b": {
          "__type": "ndarray",
          "dtype": "float32",
          "shape": [
            28
          ],
          "data": [
            0.0,
            0.0,
            0.0,
            0.0,
            0.0,
            0.0,
            0.0,
            0.0,
            0.0,
            0.0,
            0.0,
            0.0,
            0.0,
            0.0,
            0.0,
            0.0,
            0.0,
            0.0,
            0.0,
            0.0,
            0.0,
            0.0,
            0.0,
            0.0,
            0.0,
            0.0,
            0.0,
            0.0
          ],
          "truncated": false
        },
        "_virtual_input": true
      },
      "shape_in": [
        28
      ],
      "shape_out": [
        28
      ]
    },
    {
      "id": 1,
      "op": "standard_act",
      "name": "l0_silu",
      "inputs": [
        0
      ],
      "outputs": [
        2
      ],
      "attrs": {
        "type": "silu"
      },
      "shape_in": [
        28
      ],
      "shape_out": [
        28
      ]
    },
    {
      "id": 2,
      "op": "matmul",
      "name": "l0_base",
      "inputs": [
        1
      ],
      "outputs": [
        4
      ],
      "attrs": {
        "W": {
          "__type": "ndarray",
          "dtype": "float32",
          "shape": [
            16,
            28
          ],
          "data": [
            0.3822260797023773,
            0.6735258102416992,
            0.49992576241493225,
            0.07098432630300522,
            0.4040336012840271,
            -0.31684982776641846,
            -0.5318553447723389,
            -0.33488887548446655,
            0.5234552025794983,
            0.324140340089798,
            -0.6014917492866516,
            -0.28693243861198425,
            -0.08133163303136826,
            0.2735443115234375,
            -0.5975452661514282,
            -0.367167592048645,
            0.16043949127197266,
            0.6218056678771973,
            -0.5354070067405701,
            -0.4288390278816223,
            0.4432987868785858,
            -0.11952264606952667,
            -0.1593683809041977,
            -0.42085668444633484,
            -0.016431061550974846,
            0.11771059781312943,
            -0.19156987965106964,
            -0.25859084725379944,
            0.7388805150985718,
            0.7177937030792236,
            0.9066411852836609,
            -0.3313665986061096,
            -0.5566195249557495,
            0.10096956044435501,
            0.7024982571601868,
            -0.006140721496194601,
            0.9221094250679016,
            0.9728314876556396,
            0.728779137134552,
            0.10119170695543289,
            0.17085610330104828,
            0.01812657341361046,
            -0.3799454867839813,
            -0.22215087711811066,
            -0.29965683817863464,
            0.185639888048172,
            -0.2363336682319641,
            0.3469633460044861,
            -0.31709057092666626,
            -0.30107244849205017,
            -0.44637131690979004,
            0.48186221718788147,
            -0.26952922344207764,
            -0.4620254337787628,
            0.05330270156264305,
            -0.39515599608421326,
            0.04083545133471489,
            -0.2507217526435852,
            0.028087882325053215,
            0.04588540643453598,
            -0.013949397020041943,
            0.009841944091022015,
            -0.4868755340576172,
            0.1032087504863739,
            0.12317869812250137,
            0.5223994851112366,
            0.4042619466781616,
            0.2341683954000473,
            -0.23047570884227753,
            0.06350329518318176,
            -0.3774453103542328,
            -0.4428133964538574,
            -0.04841263219714165,
            0.28956690430641174,
            -0.6764415502548218,
            -0.30884307622909546,
            0.48270368576049805,
            0.06915483623743057,
            0.46618542075157166,
            0.12047363072633743,
            -0.4872637093067169,
            -0.09517347067594528,
            -0.01895931363105774,
            -0.1372051239013672,
            -0.9140335321426392,
            -0.8600994944572449,
            -1.0561867952346802,
            -0.5128109455108643,
            -0.7898985147476196,
            -0.5083115100860596,
            -0.5282256007194519,
            -0.42631226778030396,
            -1.0160443782806396,
            -0.021246349439024925,
            0.6550045609474182,
            0.4706960916519165,
            -0.1141442358493805,
            -0.2175038605928421,
            -0.28402212262153625,
            -0.33062607049942017
          ],
          "truncated": true
        },
        "b": {
          "__type": "ndarray",
          "dtype": "float32",
          "shape": [
            16
          ],
          "data": [
            0.0,
            0.0,
            0.0,
            0.0,
            0.0,
            0.0,
            0.0,
            0.0,
            0.0,
            0.0,
            0.0,
            0.0,
            0.0,
            0.0,
            0.0,
            0.0
          ],
          "truncated": false
        },
        "_scale": 1.7088137865066528
      },
      "shape_in": [
        28
      ],
      "shape_out": [
        16
      ]
    },
    {
      "id": 3,
      "op": "bspline_lut",
      "name": "l0_bspline",
      "inputs": [
        0
      ],
      "outputs": [
        4
      ],
      "attrs": {
        "table": {
          "__type": "ndarray",
          "dtype": "float32",
          "shape": [
            16,
            28,
            15
          ],
          "data": [
            -0.11948294192552567,
            -0.12673723697662354,
            -0.12912820279598236,
            -0.12633481621742249,
            -0.11785860359668732,
            -0.10313837230205536,
            -0.08161278069019318,
            -0.052720580250024796,
            -0.01594574935734272,
            0.026962514966726303,
            0.07098124176263809,
            0.11083192378282547,
            0.14123599231243134,
            0.15691496431827545,
            0.1536714732646942,
            -0.004841301124542952,
            -0.006606291048228741,
            -0.004264131188392639,
            0.003282729769125581,
            0.015404087491333485,
            0.030859215185046196,
            0.0484066903591156,
            0.06680510193109512,
            0.08481927216053009,
            0.10152718424797058,
            0.11645929515361786,
            0.12918144464492798,
            0.13925941288471222,
            0.14625908434391022,
            0.14984163641929626,
            -0.08693002909421921,
            -0.08334933966398239,
            -0.0687987357378006,
            -0.041796617209911346,
            -0.0053217653185129166,
            0.03607091307640076,
            0.07782475650310516,
            0.11538306623697281,
            0.14423702657222748,
            0.16227243840694427,
            0.17083588242530823,
            0.1715441346168518,
            0.1660139560699463,
            0.15586213767528534,
            0.1426645964384079,
            -0.07625670731067657,
            -0.08432870358228683,
            -0.08973360061645508,
            -0.09193656593561172,
            -0.09031129628419876,
            -0.08419910073280334,
            -0.07294124364852905,
            -0.055879008024930954,
            -0.032381828874349594,
            -0.0032284853514283895,
            0.028765492141246796,
            0.06062556803226471,
            0.08937715739011765,
            0.1120457798242569,
            0.1260426938533783,
            -0.18355491757392883,
            -0.19484089314937592,
            -0.1973169445991516,
            -0.18901720643043518,
            -0.1712563931941986,
            -0.1465083509683609,
            -0.11724819988012314,
            -0.08595114946365356,
            -0.055075034499168396,
            -0.026211246848106384,
            0.00030101786251179874,
            0.02422032691538334,
            0.04530524089932442,
            0.06331436336040497,
            0.07794701308012009,
            -0.05586715787649155,
            -0.05771787464618683,
            -0.05535346642136574,
            -0.04883059486746788,
            -0.03858974575996399,
            -0.025207027792930603,
            -0.009258703328669071,
            0.008678960613906384,
            0.028020024299621582,
            0.047694820910692215,
            0.06593451648950577,
            0.08091574907302856,
            0.09081509709358215,
            0.09380922466516495,
            0.08847545832395554,
            0.12693259119987488,
            0.14410607516765594,
            0.1569567620754242,
            0.1633428931236267,
            0.16238415241241455,
            0.15364596247673035,
            0.13669411838054657,
            0.11109451949596405,
            0.07644163817167282,
            0.033761609345674515
          ],
          "truncated": true
        },
        "grid": {
          "__type": "ndarray",
          "dtype": "float64",
          "shape": [
            15
          ],
          "data": [
            -3.0,
            -2.5714285714285716,
            -2.142857142857143,
            -1.7142857142857144,
            -1.2857142857142858,
            -0.8571428571428572,
            -0.4285714285714288,
            0.0,
            0.4285714285714284,
            0.8571428571428568,
            1.2857142857142856,
            1.7142857142857144,
            2.1428571428571423,
            2.571428571428571,
            3.0
          ],
          "truncated": false
        },
        "x_range": [
          -3.0,
          3.0
        ],
        "_scale": 1.4052091836929321,
        "_spline_order": 3,
        "_grid_size": 8
      },
      "shape_in": [
        28
      ],
      "shape_out": [
        28,
        16
      ]
    },
    {
      "id": 4,
      "op": "add",
      "name": "l0_merge",
      "inputs": [
        2,
        3
      ],
      "outputs": [
        5,
        7
      ],
      "attrs": {
        "scale_base": 1.7088137865066528,
        "scale_spline": 1.4052091836929321
      },
      "shape_in": [
        16
      ],
      "shape_out": [
        16
      ]
    },
    {
      "id": 5,
      "op": "standard_act",
      "name": "l1_silu",
      "inputs": [
        4
      ],
      "outputs": [
        6
      ],
      "attrs": {
        "type": "silu"
      },
      "shape_in": [
        16
      ],
      "shape_out": [
        16
      ]
    },
    {
      "id": 6,
      "op": "matmul",
      "name": "l1_base",
      "inputs": [
        5
      ],
      "outputs": [
        8
      ],
      "attrs": {
        "W": {
          "__type": "ndarray",
          "dtype": "float32",
          "shape": [
            4,
            16
          ],
          "data": [
            0.02541222795844078,
            -0.4251655340194702,
            -0.4513899087905884,
            0.026270458474755287,
            0.3702881336212158,
            -0.12081607431173325,
            -0.22312386333942413,
            0.25124406814575195,
            -0.327879935503006,
            0.28895413875579834,
            -0.06542423367500305,
            0.10672809183597565,
            0.26238152384757996,
            -0.1798090785741806,
            -0.3070911169052124,
            -0.42044466733932495,
            0.5762351155281067,
            -1.0906574726104736,
            -0.26905179023742676,
            -0.6730261445045471,
            -0.051492344588041306,
            -0.4457789361476898,
            0.5072183012962341,
            -0.05496610328555107,
            0.3812393546104431,
            -0.6063070297241211,
            0.19179192185401917,
            0.15254417061805725,
            -0.4219312369823456,
            0.3383130431175232,
            0.19198741018772125,
            -0.34572938084602356,
            0.17289775609970093,
            0.5825878381729126,
            0.7331662774085999,
            0.4268312454223633,
            -0.007742179557681084,
            0.47664874792099,
            0.10260698944330215,
            -0.5723706483840942,
            0.0728498250246048,
            0.4253429174423218,
            -0.3637053072452545,
            -0.6206156015396118,
            0.26569443941116333,
            -0.3130539357662201,
            0.20332123339176178,
            0.13271217048168182,
            -0.7091009616851807,
            0.7231102585792542,
            -0.2214241474866867,
            0.44916218519210815,
            -0.36557134985923767,
            0.4263724088668823,
            0.026653073728084564,
            0.4637966454029083,
            -0.3418978750705719,
            -0.23913633823394775,
            0.41525787115097046,
            0.2146361619234085,
            -0.3901597559452057,
            -0.19387541711330414,
            -0.5619489550590515,
            0.4047181010246277
          ],
          "truncated": false
        },
        "b": {
          "__type": "ndarray",
          "dtype": "float32",
          "shape": [
            4
          ],
          "data": [
            0.0,
            0.0,
            0.0,
            0.0
          ],
          "truncated": false
        },
        "_scale": 1.6978758573532104
      },
      "shape_in": [
        16
      ],
      "shape_out": [
        4
      ]
    },
    {
      "id": 7,
      "op": "bspline_lut",
      "name": "l1_bspline",
      "inputs": [
        4
      ],
      "outputs": [
        8
      ],
      "attrs": {
        "table": {
          "__type": "ndarray",
          "dtype": "float32",
          "shape": [
            4,
            16,
            15
          ],
          "data": [
            0.09694579988718033,
            0.09883910417556763,
            0.10059332102537155,
            0.10220034420490265,
            0.10365207493305206,
            0.10494035482406616,
            0.10605710744857788,
            0.10699418932199478,
            0.10774347931146622,
            0.10829687118530273,
            0.10864660888910294,
            0.10879284888505936,
            0.10874414443969727,
            0.10850928723812103,
            0.10809716582298279,
            0.06922922283411026,
            0.06777449697256088,
            0.06627685576677322,
            0.06472799926996231,
            0.06311961263418198,
            0.06144337356090546,
            0.05969098210334778,
            0.05785413086414337,
            0.055924493819475174,
            0.05389375612139702,
            0.05175399035215378,
            0.049505677074193954,
            0.047158095985651016,
            0.044720858335494995,
            0.0422036238014698,
            0.0769505724310875,
            0.07392514497041702,
            0.07089251279830933,
            0.06786031275987625,
            0.06483612954616547,
            0.06182756647467613,
            0.0588422492146492,
            0.05588778853416443,
            0.05297177657485008,
            0.05010182783007622,
            0.04728538170456886,
            0.04452556371688843,
            0.04182118922472,
            0.03917081281542778,
            0.03657301887869835,
            0.01856660656630993,
            0.01670478656888008,
            0.014804266393184662,
            0.012872213497757912,
            0.010915788821876049,
            0.008942147716879845,
            0.006958459038287401,
            0.00497188325971365,
            0.0029895801562815905,
            0.0010187103180214763,
            -0.0009335599606856704,
            -0.0028600897639989853,
            -0.004753722809255123,
            -0.006607328541576862,
            -0.008413759991526604,
            -0.048099201172590256,
            -0.041303228586912155,
            -0.03432539105415344,
            -0.027162710204720497,
            -0.019812120124697685,
            -0.01227064710110426,
            -0.0045352717861533165,
            0.0033970202784985304,
            0.011529236100614071,
            0.019864404574036598,
            0.028405047953128815,
            0.03714251518249512,
            0.04605652019381523,
            0.05512634292244911,
            0.06433121114969254,
            0.04161062836647034,
            0.03862927109003067,
            0.035596683621406555,
            0.03250903636217117,
            0.029362505301833153,
            0.026153268292546272,
            0.02287749946117401,
            0.0195313710719347,
            0.016111059114336967,
            0.012612729333341122,
            0.009032866917550564,
            0.005375049542635679,
            0.0016502253711223602,
            -0.002130369422957301,
            -0.005955469328910112,
            0.040686048567295074,
            0.031406015157699585,
            0.022158445790410042,
            0.012964866124093533,
            0.003846710082143545,
            -0.005174492951482534,
            -0.0140772620216012,
            -0.022840099409222603,
            -0.031441520899534225,
            -0.03986004367470741
          ],
          "truncated": true
        },
        "grid": {
          "__type": "ndarray",
          "dtype": "float64",
          "shape": [
            15
          ],
          "data": [
            -3.0,
            -2.5714285714285716,
            -2.142857142857143,
            -1.7142857142857144,
            -1.2857142857142858,
            -0.8571428571428572,
            -0.4285714285714288,
            0.0,
            0.4285714285714284,
            0.8571428571428568,
            1.2857142857142856,
            1.7142857142857144,
            2.1428571428571423,
            2.571428571428571,
            3.0
          ],
          "truncated": false
        },
        "x_range": [
          -3.0,
          3.0
        ],
        "_scale": 1.2173657417297363,
        "_spline_order": 3,
        "_grid_size": 8
      },
      "shape_in": [
        16
      ],
      "shape_out": [
        16,
        4
      ]
    },
    {
      "id": 8,
      "op": "add",
      "name": "l1_merge",
      "inputs": [
        6,
        7
      ],
      "outputs": [
        9
      ],
      "attrs": {
        "scale_base": 1.6978758573532104,
        "scale_spline": 1.2173657417297363
      },
      "shape_in": [
        4
      ],
      "shape_out": [
        4
      ]
    },
    {
      "id": 9,
      "op": "softmax",
      "name": "softmax",
      "inputs": [
        8
      ],
      "outputs": [
        10
      ],
      "attrs": {},
      "shape_in": [
        4
      ],
      "shape_out": [
        4
      ]
    },
    {
      "id": 10,
      "op": "argmax",
      "name": "argmax",
      "inputs": [
        9
      ],
      "outputs": [],
      "attrs": {},
      "shape_in": [
        4
      ],
      "shape_out": [
        1
      ]
    }
  ]
}