{
  "name": "kan",
  "node_count": 15,
  "op_counts": {
    "matmul": 4,
    "standard_act": 3,
    "bspline_lut": 3,
    "add": 3,
    "softmax": 1,
    "argmax": 1
  },
  "nodes": [
    {
      "id": 0,
      "op": "matmul",
      "name": "input_features",
      "inputs": [],
      "outputs": [
        1,
        3
      ],
      "attrs": {
        "W": {
          "__type": "ndarray",
          "dtype": "float32",
          "shape": [
            28,
            28
          ],
          "data": [
            1.0,
            0.0,
            0.0,
            0.0,
            0.0,
            0.0,
            0.0,
            0.0,
            0.0,
            0.0,
            0.0,
            0.0,
            0.0,
            0.0,
            0.0,
            0.0,
            0.0,
            0.0,
            0.0,
            0.0,
            0.0,
            0.0,
            0.0,
            0.0,
            0.0,
            0.0,
            0.0,
            0.0,
            0.0,
            1.0,
            0.0,
            0.0,
            0.0,
            0.0,
            0.0,
            0.0,
            0.0,
            0.0,
            0.0,
            0.0,
            0.0,
            0.0,
            0.0,
            0.0,
            0.0,
            0.0,
            0.0,
            0.0,
            0.0,
            0.0,
            0.0,
            0.0,
            0.0,
            0.0,
            0.0,
            0.0,
            0.0,
            0.0,
            1.0,
            0.0,
            0.0,
            0.0,
            0.0,
            0.0,
            0.0,
            0.0,
            0.0,
            0.0,
            0.0,
            0.0,
            0.0,
            0.0,
            0.0,
            0.0,
            0.0,
            0.0,
            0.0,
            0.0,
            0.0,
            0.0,
            0.0,
            0.0,
            0.0,
            0.0,
            0.0,
            0.0,
            0.0,
            1.0,
            0.0,
            0.0,
            0.0,
            0.0,
            0.0,
            0.0,
            0.0,
            0.0,
            0.0,
            0.0,
            0.0,
            0.0
          ],
          "truncated": true
        },
        "b": {
          "__type": "ndarray",
          "dtype": "float32",
          "shape": [
            28
          ],
          "data": [
            0.0,
            0.0,
            0.0,
            0.0,
            0.0,
            0.0,
            0.0,
            0.0,
            0.0,
            0.0,
            0.0,
            0.0,
            0.0,
            0.0,
            0.0,
            0.0,
            0.0,
            0.0,
            0.0,
            0.0,
            0.0,
            0.0,
            0.0,
            0.0,
            0.0,
            0.0,
            0.0,
            0.0
          ],
          "truncated": false
        },
        "_virtual_input": true
      },
      "shape_in": [
        28
      ],
      "shape_out": [
        28
      ]
    },
    {
      "id": 1,
      "op": "standard_act",
      "name": "l0_silu",
      "inputs": [
        0
      ],
      "outputs": [
        2
      ],
      "attrs": {
        "type": "silu"
      },
      "shape_in": [
        28
      ],
      "shape_out": [
        28
      ]
    },
    {
      "id": 2,
      "op": "matmul",
      "name": "l0_base",
      "inputs": [
        1
      ],
      "outputs": [
        4
      ],
      "attrs": {
        "W": {
          "__type": "ndarray",
          "dtype": "float32",
          "shape": [
            16,
            28
          ],
          "data": [
            -0.21170653402805328,
            -0.292434960603714,
            -0.21780027449131012,
            0.14494550228118896,
            0.09095150977373123,
            0.23679065704345703,
            -0.2178168147802353,
            0.01255315262824297,
            -0.3289371728897095,
            0.0006776022491976619,
            -0.1468620002269745,
            0.007228330709040165,
            0.023711713030934334,
            -0.2335638403892517,
            -0.035468485206365585,
            -0.08841899037361145,
            -0.003813536372035742,
            0.18180200457572937,
            -0.2723052501678467,
            -0.41568589210510254,
            0.19709895551204681,
            0.153909832239151,
            0.24044111371040344,
            0.21784061193466187,
            0.0698198452591896,
            0.06794065982103348,
            0.13853447139263153,
            0.1332116276025772,
            -0.193237766623497,
            -0.33680930733680725,
            -0.08689001947641373,
            0.16150447726249695,
            -0.19788920879364014,
            -0.016628671437501907,
            -0.04494001716375351,
            0.15520687401294708,
            -0.13345058262348175,
            0.068383127450943,
            -0.10911329090595245,
            0.2211768478155136,
            0.2203131467103958,
            -0.023095736280083656,
            -0.08764741569757462,
            0.1620829850435257,
            -0.026506686583161354,
            -0.02091686986386776,
            -0.24725128710269928,
            -0.2972452938556671,
            0.038346484303474426,
            0.2214217334985733,
            0.2687602639198303,
            0.33148911595344543,
            -0.16793331503868103,
            -0.006798566319048405,
            -0.07736796140670776,
            0.06123366206884384,
            0.006994714494794607,
            -0.10795706510543823,
            -0.06666111201047897,
            0.07948117703199387,
            -0.17013885080814362,
            0.15696948766708374,
            -0.18111905455589294,
            -0.06097199767827988,
            0.08893123269081116,
            0.39296790957450867,
            -0.024329334497451782,
            -0.09308812022209167,
            0.1743430346250534,
            -0.22375831007957458,
            -0.21801675856113434,
            0.2972868084907532,
            -0.2028353065252304,
            0.19876205921173096,
            -0.5728676915168762,
            0.0327417254447937,
            -0.1080550104379654,
            0.11109189689159393,
            0.18729843199253082,
            0.32150548696517944,
            -0.24269253015518188,
            0.09499718993902206,
            -0.19949392974376678,
            -0.07153410464525223,
            -0.04006465896964073,
            -0.05571446195244789,
            -0.09801749140024185,
            -0.5427116751670837,
            -0.41871970891952515,
            -0.31514236330986023,
            -0.2276860624551773,
            -0.3217564523220062,
            -0.21289710700511932,
            -0.30074143409729004,
            0.04974298179149628,
            -0.089665986597538,
            0.3449789583683014,
            -0.0631752759218216,
            -0.03733053058385849,
            0.3429129123687744
          ],
          "truncated": true
        },
        "b": {
          "__type": "ndarray",
          "dtype": "float32",
          "shape": [
            16
          ],
          "data": [
            0.0,
            0.0,
            0.0,
            0.0,
            0.0,
            0.0,
            0.0,
            0.0,
            0.0,
            0.0,
            0.0,
            0.0,
            0.0,
            0.0,
            0.0,
            0.0
          ],
          "truncated": false
        },
        "_scale": 1.4732913970947266
      },
      "shape_in": [
        28
      ],
      "shape_out": [
        16
      ]
    },
    {
      "id": 3,
      "op": "bspline_lut",
      "name": "l0_bspline",
      "inputs": [
        0
      ],
      "outputs": [
        4
      ],
      "attrs": {
        "table": {
          "__type": "ndarray",
          "dtype": "float32",
          "shape": [
            16,
            28,
            15
          ],
          "data": [
            0.11257506161928177,
            0.09048877656459808,
            0.06541373580694199,
            0.040415432304143906,
            0.01856006309390068,
            0.002913805888965726,
            -0.0034571243450045586,
            0.0019879695028066635,
            0.017161713913083076,
            0.03757061809301376,
            0.05870063602924347,
            0.07603771984577179,
            0.08506777882575989,
            0.08157557249069214,
            0.06587562710046768,
            -0.007403276395052671,
            0.0008086255402304232,
            0.00937680248171091,
            0.018885042518377304,
            0.029917262494564056,
            0.04305737093091011,
            0.05888925865292549,
            0.077854685485363,
            0.09914372861385345,
            0.12129563093185425,
            0.14284414052963257,
            0.16232295334339142,
            0.1782657951116562,
            0.1892482489347458,
            0.19448034465312958,
            0.1905682384967804,
            0.1967385709285736,
            0.20411424338817596,
            0.21188026666641235,
            0.2192215770483017,
            0.22532296180725098,
            0.22936925292015076,
            0.23063483834266663,
            0.2291836440563202,
            0.22548991441726685,
            0.22003142535686493,
            0.21328598260879517,
            0.20573130249977112,
            0.19779326021671295,
            0.18911047279834747,
            0.15185539424419403,
            0.1525985300540924,
            0.1446513533592224,
            0.13008363544940948,
            0.11096597462892532,
            0.08936887234449387,
            0.06736290454864502,
            0.04691500589251518,
            0.029079532250761986,
            0.014436348341405392,
            0.0035612755455076694,
            -0.0029698628932237625,
            -0.004581242799758911,
            -0.0007759100990369916,
            0.0077476282604038715,
            -0.046238165348768234,
            -0.056846052408218384,
            -0.058337800204753876,
            -0.05342099070549011,
            -0.04480459913611412,
            -0.03519755229353905,
            -0.027308808639645576,
            -0.023578600957989693,
            -0.02408069744706154,
            -0.02765851840376854,
            -0.033144984394311905,
            -0.0393730029463768,
            -0.045175474137067795,
            -0.04941588640213013,
            -0.051420968025922775,
            0.015987969934940338,
            0.026561617851257324,
            0.032854218035936356,
            0.03607918322086334,
            0.03745054826140404,
            0.03818230330944061,
            0.03948846459388733,
            0.04244806990027428,
            0.04695168882608414,
            0.05227196216583252,
            0.0576762855052948,
            0.062432028353214264,
            0.0658065527677536,
            0.0671493336558342,
            0.06705429404973984,
            0.07338045537471771,
            0.07066820561885834,
            0.06654773652553558,
            0.061295799911022186,
            0.05518940091133118,
            0.0485055111348629,
            0.041521135717630386,
            0.03457068279385567,
            0.02849445678293705,
            0.024395745247602463
          ],
          "truncated": true
        },
        "grid": {
          "__type": "ndarray",
          "dtype": "float64",
          "shape": [
            15
          ],
          "data": [
            -3.0,
            -2.5714285714285716,
            -2.142857142857143,
            -1.7142857142857144,
            -1.2857142857142858,
            -0.8571428571428572,
            -0.4285714285714288,
            0.0,
            0.4285714285714284,
            0.8571428571428568,
            1.2857142857142856,
            1.7142857142857144,
            2.1428571428571423,
            2.571428571428571,
            3.0
          ],
          "truncated": false
        },
        "x_range": [
          -3.0,
          3.0
        ],
        "_scale": 1.2924329042434692,
        "_spline_order": 3,
        "_grid_size": 8
      },
      "shape_in": [
        28
      ],
      "shape_out": [
        28,
        16
      ]
    },
    {
      "id": 4,
      "op": "add",
      "name": "l0_merge",
      "inputs": [
        2,
        3
      ],
      "outputs": [
        5,
        7
      ],
      "attrs": {
        "scale_base": 1.4732913970947266,
        "scale_spline": 1.2924329042434692
      },
      "shape_in": [
        16
      ],
      "shape_out": [
        16
      ]
    },
    {
      "id": 5,
      "op": "standard_act",
      "name": "l1_silu",
      "inputs": [
        4
      ],
      "outputs": [
        6
      ],
      "attrs": {
        "type": "silu"
      },
      "shape_in": [
        16
      ],
      "shape_out": [
        16
      ]
    },
    {
      "id": 6,
      "op": "matmul",
      "name": "l1_base",
      "inputs": [
        5
      ],
      "outputs": [
        8
      ],
      "attrs": {
        "W": {
          "__type": "ndarray",
          "dtype": "float32",
          "shape": [
            8,
            16
          ],
          "data": [
            -0.018928514793515205,
            0.04360663518309593,
            -0.17361648380756378,
            -0.19249434769153595,
            -0.16455386579036713,
            0.29231399297714233,
            0.0557631216943264,
            0.35340771079063416,
            -0.06268268823623657,
            0.06831071525812149,
            0.11733740568161011,
            -0.011221658438444138,
            -0.10791726410388947,
            0.26346486806869507,
            -0.02526615560054779,
            -0.0621737465262413,
            0.11239273101091385,
            0.2497304528951645,
            0.2349698543548584,
            -0.022722413763403893,
            0.09957804530858994,
            -0.20650973916053772,
            -0.06093677133321762,
            -0.295370489358902,
            -0.08040361106395721,
            0.22686302661895752,
            0.07373104244470596,
            -0.00568512873724103,
            -0.23409883677959442,
            -0.1901390552520752,
            0.2872355282306671,
            0.583076000213623,
            0.18457424640655518,
            0.05353527143597603,
            -0.26769861578941345,
            -0.292633593082428,
            -0.22373904287815094,
            0.32900115847587585,
            0.2763451933860779,
            0.2147590070962906,
            -0.4025028944015503,
            0.2038787454366684,
            0.19418883323669434,
            0.23561248183250427,
            0.06699816882610321,
            0.1869666427373886,
            0.11694218218326569,
            0.08237125724554062,
            -0.12226605415344238,
            -0.035510171204805374,
            0.03132880479097366,
            0.21569551527500153,
            0.23220130801200867,
            0.0017844097455963492,
            0.1549805998802185,
            0.3615863621234894,
            0.14341841638088226,
            -0.4259014129638672,
            0.04236998036503792,
            -0.3021000325679779,
            0.08148758113384247,
            0.28863808512687683,
            -0.09236081689596176,
            -0.11339570581912994,
            0.045734476298093796,
            0.35928550362586975,
            0.200371652841568,
            0.31353113055229187,
            0.141230046749115,
            -0.23075798153877258,
            -0.21811848878860474,
            -0.13766859471797943,
            0.1742725670337677,
            -0.26500147581100464,
            0.3077034056186676,
            -0.2184322476387024,
            -0.1426590532064438,
            -0.0020551802590489388,
            -0.08514739573001862,
            0.1025022491812706,
            -0.04182614013552666,
            0.03530668094754219,
            -0.17920377850532532,
            -0.059341911226511,
            -0.277180939912796,
            0.22299636900424957,
            0.17212854325771332,
            0.2743917405605316,
            -0.2778781056404114,
            -0.19645948708057404,
            0.09408461302518845,
            -0.024253500625491142,
            -0.00020581479475367814,
            0.27317264676094055,
            -0.06999737024307251,
            -0.02197495475411415,
            0.25627490878105164,
            0.06744513660669327,
            0.2412765920162201,
            0.10395952314138412
          ],
          "truncated": true
        },
        "b": {
          "__type": "ndarray",
          "dtype": "float32",
          "shape": [
            8
          ],
          "data": [
            0.0,
            0.0,
            0.0,
            0.0,
            0.0,
            0.0,
            0.0,
            0.0
          ],
          "truncated": false
        },
        "_scale": 1.4548817873001099
      },
      "shape_in": [
        16
      ],
      "shape_out": [
        8
      ]
    },
    {
      "id": 7,
      "op": "bspline_lut",
      "name": "l1_bspline",
      "inputs": [
        4
      ],
      "outputs": [
        8
      ],
      "attrs": {
        "table": {
          "__type": "ndarray",
          "dtype": "float32",
          "shape": [
            8,
            16,
            15
          ],
          "data": [
            -0.06773684918880463,
            -0.05550512671470642,
            -0.04260091483592987,
            -0.02947506681084633,
            -0.016578353941440582,
            -0.004361604806035757,
            0.006724373437464237,
            0.01622876338660717,
            0.023700756952166557,
            0.028774883598089218,
            0.03153800591826439,
            0.032226212322711945,
            0.031075697392225266,
            0.028322655707597733,
            0.02420327439904213,
            -0.07859940826892853,
            -0.07347983866930008,
            -0.06759046763181686,
            -0.06097002699971199,
            -0.05365718528628349,
            -0.04569065570831299,
            -0.03710915148258209,
            -0.027951359748840332,
            -0.018255988135933876,
            -0.008103178814053535,
            0.002207295736297965,
            0.012303178198635578,
            0.02181219682097435,
            0.03036205656826496,
            0.0375804603099823,
            0.02093276008963585,
            0.025704922154545784,
            0.029103171080350876,
            0.03139636293053627,
            0.03285335376858711,
            0.033743005245923996,
            0.034334175288677216,
            0.034895725548267365,
            0.035696517676115036,
            0.03697066009044647,
            0.03876824304461479,
            0.0410785973072052,
            0.043891020119190216,
            0.047194816172122955,
            0.05097927525639534,
            -0.11672444641590118,
            -0.10671808570623398,
            -0.09379582107067108,
            -0.07887504249811172,
            -0.06287312507629395,
            -0.04670747369527817,
            -0.03129546344280243,
            -0.01755448617041111,
            -0.00640191650018096,
            0.0014187952037900686,
            0.006086048204451799,
            0.008082377724349499,
            0.007890530861914158,
            0.00599325867369771,
            0.002873300574719906,
            -0.0723642036318779,
            -0.07342834025621414,
            -0.07427270710468292,
            -0.07481618225574493,
            -0.07497765123844147,
            -0.07467599213123322,
            -0.07383010536432266,
            -0.0723588690161705,
            -0.07018116861581802,
            -0.0672406256198883,
            -0.06361210346221924,
            -0.05941372737288475,
            -0.054763633757829666,
            -0.0497799888253212,
            -0.04458094760775566,
            -0.03191182762384415,
            -0.029210422188043594,
            -0.025412749499082565,
            -0.020659102126955986,
            -0.015089759603142738,
            -0.008844999596476555,
            -0.002065112814307213,
            0.005109624937176704,
            0.012538927607238293,
            0.02008902095258236,
            0.027660684660077095,
            0.03516606613993645,
            0.04251733794808388,
            0.0496266707777977,
            0.05640622600913048,
            0.011093288660049438,
            0.012475923635065556,
            0.013149506412446499,
            0.013261143118143082,
            0.01295794453471899,
            0.012387017719447613,
            0.011695471592247486,
            0.011030415073037148,
            0.01053895615041256,
            0.010334117338061333
          ],
          "truncated": true
        },
        "grid": {
          "__type": "ndarray",
          "dtype": "float64",
          "shape": [
            15
          ],
          "data": [
            -3.0,
            -2.5714285714285716,
            -2.142857142857143,
            -1.7142857142857144,
            -1.2857142857142858,
            -0.8571428571428572,
            -0.4285714285714288,
            0.0,
            0.4285714285714284,
            0.8571428571428568,
            1.2857142857142856,
            1.7142857142857144,
            2.1428571428571423,
            2.571428571428571,
            3.0
          ],
          "truncated": false
        },
        "x_range": [
          -3.0,
          3.0
        ],
        "_scale": 1.1627305746078491,
        "_spline_order": 3,
        "_grid_size": 8
      },
      "shape_in": [
        16
      ],
      "shape_out": [
        16,
        8
      ]
    },
    {
      "id": 8,
      "op": "add",
      "name": "l1_merge",
      "inputs": [
        6,
        7
      ],
      "outputs": [
        9,
        11
      ],
      "attrs": {
        "scale_base": 1.4548817873001099,
        "scale_spline": 1.1627305746078491
      },
      "shape_in": [
        8
      ],
      "shape_out": [
        8
      ]
    },
    {
      "id": 9,
      "op": "standard_act",
      "name": "l2_silu",
      "inputs": [
        8
      ],
      "outputs": [
        10
      ],
      "attrs": {
        "type": "silu"
      },
      "shape_in": [
        8
      ],
      "shape_out": [
        8
      ]
    },
    {
      "id": 10,
      "op": "matmul",
      "name": "l2_base",
      "inputs": [
        9
      ],
      "outputs": [
        12
      ],
      "attrs": {
        "W": {
          "__type": "ndarray",
          "dtype": "float32",
          "shape": [
            4,
            8
          ],
          "data": [
            -0.26295092701911926,
            0.033183127641677856,
            -0.31643784046173096,
            0.24340739846229553,
            0.259548157453537,
            -0.19237953424453735,
            0.1596779227256775,
            -0.14677177369594574,
            0.0953918993473053,
            -0.42829379439353943,
            0.40442031621932983,
            0.14082539081573486,
            -0.2235182374715805,
            0.3324711322784424,
            -0.05330492928624153,
            -0.35791993141174316,
            -0.20353583991527557,
            0.3875404894351959,
            0.13139155507087708,
            -0.42637699842453003,
            -0.2029370665550232,
            -0.19595877826213837,
            0.21288537979125977,
            -0.2950595021247864,
            -0.183365598320961,
            -0.3225347697734833,
            -0.014332971535623074,
            0.1653992384672165,
            -0.3433559834957123,
            -0.1776769608259201,
            -0.08193139731884003,
            0.5130707621574402
          ],
          "truncated": false
        },
        "b": {
          "__type": "ndarray",
          "dtype": "float32",
          "shape": [
            4
          ],
          "data": [
            0.0,
            0.0,
            0.0,
            0.0
          ],
          "truncated": false
        },
        "_scale": 1.4750572443008423
      },
      "shape_in": [
        8
      ],
      "shape_out": [
        4
      ]
    },
    {
      "id": 11,
      "op": "bspline_lut",
      "name": "l2_bspline",
      "inputs": [
        8
      ],
      "outputs": [
        12
      ],
      "attrs": {
        "table": {
          "__type": "ndarray",
          "dtype": "float32",
          "shape": [
            4,
            8,
            15
          ],
          "data": [
            -0.09966100752353668,
            -0.09478503465652466,
            -0.08871299028396606,
            -0.08189979940652847,
            -0.07480031251907349,
            -0.0678693950176239,
            -0.06156191602349281,
            -0.056332770735025406,
            -0.052636805921792984,
            -0.050862252712249756,
            -0.0509394109249115,
            -0.052606191486120224,
            -0.05559981241822243,
            -0.059657517820596695,
            -0.06451654434204102,
            -0.01976037584245205,
            -0.020056936889886856,
            -0.020892005413770676,
            -0.02227737382054329,
            -0.024224812164902687,
            -0.026746118441224098,
            -0.02985306642949581,
            -0.03355743736028671,
            -0.037871021777391434,
            -0.042787011712789536,
            -0.048170898109674454,
            -0.05383455008268356,
            -0.059589602053165436,
            -0.06524772942066193,
            -0.07062060385942459,
            0.05176616832613945,
            0.04434342309832573,
            0.03724617883563042,
            0.030380863696336746,
            0.02365385740995407,
            0.016971539705991745,
            0.010240305215120316,
            0.00336654856801033,
            -0.003743348643183708,
            -0.011166633106768131,
            -0.018868179991841316,
            -0.026765648275613785,
            -0.03477651998400688,
            -0.04281829670071602,
            -0.05080847442150116,
            0.04123847931623459,
            0.052809588611125946,
            0.06399703025817871,
            0.07473399490118027,
            0.0849536582827568,
            0.09458927810192108,
            0.10357402265071869,
            0.11184107512235641,
            0.11932367831468582,
            0.1259588748216629,
            0.1317102164030075,
            0.13655254244804382,
            0.1404605358839035,
            0.14340901374816895,
            0.14537279307842255,
            -0.18408143520355225,
            -0.1698925495147705,
            -0.15508566796779633,
            -0.13992927968502045,
            -0.12469174712896347,
            -0.1096414178609848,
            -0.09504673629999161,
            -0.08117606490850449,
            -0.06829780340194702,
            -0.056645285338163376,
            -0.04621100053191185,
            -0.036886267364025116,
            -0.028562016785144806,
            -0.021129192784428596,
            -0.014478769153356552,
            -0.008897478692233562,
            -0.00059404072817415,
            0.007235414814203978,
            0.014282810501754284,
            0.020240066573023796,
            0.024799132719635963,
            0.027651945129036903,
            0.02849040925502777,
            0.0270064789801836,
            0.02296159788966179,
            0.016594786196947098,
            0.008345773443579674,
            -0.0013450435362756252,
            -0.012037294916808605,
            -0.023290542885661125,
            -0.10094296932220459,
            -0.09729386121034622,
            -0.09378386288881302,
            -0.09055830538272858,
            -0.0877624973654747,
            -0.08554176986217499,
            -0.08404144644737244,
            -0.08340683579444885,
            -0.08378326892852783,
            -0.08527855575084686
          ],
          "truncated": true
        },
        "grid": {
          "__type": "ndarray",
          "dtype": "float64",
          "shape": [
            15
          ],
          "data": [
            -3.0,
            -2.5714285714285716,
            -2.142857142857143,
            -1.7142857142857144,
            -1.2857142857142858,
            -0.8571428571428572,
            -0.4285714285714288,
            0.0,
            0.4285714285714284,
            0.8571428571428568,
            1.2857142857142856,
            1.7142857142857144,
            2.1428571428571423,
            2.571428571428571,
            3.0
          ],
          "truncated": false
        },
        "x_range": [
          -3.0,
          3.0
        ],
        "_scale": 1.162247657775879,
        "_spline_order": 3,
        "_grid_size": 8
      },
      "shape_in": [
        8
      ],
      "shape_out": [
        8,
        4
      ]
    },
    {
      "id": 12,
      "op": "add",
      "name": "l2_merge",
      "inputs": [
        10,
        11
      ],
      "outputs": [
        13
      ],
      "attrs": {
        "scale_base": 1.4750572443008423,
        "scale_spline": 1.162247657775879
      },
      "shape_in": [
        4
      ],
      "shape_out": [
        4
      ]
    },
    {
      "id": 13,
      "op": "softmax",
      "name": "softmax",
      "inputs": [
        12
      ],
      "outputs": [
        14
      ],
      "attrs": {},
      "shape_in": [
        4
      ],
      "shape_out": [
        4
      ]
    },
    {
      "id": 14,
      "op": "argmax",
      "name": "argmax",
      "inputs": [
        13
      ],
      "outputs": [],
      "attrs": {},
      "shape_in": [
        4
      ],
      "shape_out": [
        1
      ]
    }
  ]
}