{
  "name": "mlp",
  "node_count": 8,
  "op_counts": {
    "matmul": 4,
    "standard_act": 2,
    "softmax": 1,
    "argmax": 1
  },
  "nodes": [
    {
      "id": 0,
      "op": "matmul",
      "name": "input_features",
      "inputs": [],
      "outputs": [
        1
      ],
      "attrs": {
        "W": {
          "__type": "ndarray",
          "dtype": "float32",
          "shape": [
            28,
            28
          ],
          "data": [
            1.0,
            0.0,
            0.0,
            0.0,
            0.0,
            0.0,
            0.0,
            0.0,
            0.0,
            0.0,
            0.0,
            0.0,
            0.0,
            0.0,
            0.0,
            0.0,
            0.0,
            0.0,
            0.0,
            0.0,
            0.0,
            0.0,
            0.0,
            0.0,
            0.0,
            0.0,
            0.0,
            0.0,
            0.0,
            1.0,
            0.0,
            0.0,
            0.0,
            0.0,
            0.0,
            0.0,
            0.0,
            0.0,
            0.0,
            0.0,
            0.0,
            0.0,
            0.0,
            0.0,
            0.0,
            0.0,
            0.0,
            0.0,
            0.0,
            0.0,
            0.0,
            0.0,
            0.0,
            0.0,
            0.0,
            0.0,
            0.0,
            0.0,
            1.0,
            0.0,
            0.0,
            0.0,
            0.0,
            0.0,
            0.0,
            0.0,
            0.0,
            0.0,
            0.0,
            0.0,
            0.0,
            0.0,
            0.0,
            0.0,
            0.0,
            0.0,
            0.0,
            0.0,
            0.0,
            0.0,
            0.0,
            0.0,
            0.0,
            0.0,
            0.0,
            0.0,
            0.0,
            1.0,
            0.0,
            0.0,
            0.0,
            0.0,
            0.0,
            0.0,
            0.0,
            0.0,
            0.0,
            0.0,
            0.0,
            0.0
          ],
          "truncated": true
        },
        "b": {
          "__type": "ndarray",
          "dtype": "float32",
          "shape": [
            28
          ],
          "data": [
            0.0,
            0.0,
            0.0,
            0.0,
            0.0,
            0.0,
            0.0,
            0.0,
            0.0,
            0.0,
            0.0,
            0.0,
            0.0,
            0.0,
            0.0,
            0.0,
            0.0,
            0.0,
            0.0,
            0.0,
            0.0,
            0.0,
            0.0,
            0.0,
            0.0,
            0.0,
            0.0,
            0.0
          ],
          "truncated": false
        },
        "_virtual_input": true
      },
      "shape_in": [
        28
      ],
      "shape_out": [
        28
      ]
    },
    {
      "id": 1,
      "op": "matmul",
      "name": "fc0",
      "inputs": [
        0
      ],
      "outputs": [
        2
      ],
      "attrs": {
        "W": {
          "__type": "ndarray",
          "dtype": "float32",
          "shape": [
            32,
            28
          ],
          "data": [
            0.5694862008094788,
            -0.009569215588271618,
            0.7619486451148987,
            0.2215109020471573,
            -0.35615119338035583,
            -0.25226232409477234,
            0.2582798898220062,
            0.00992581807076931,
            0.3836570978164673,
            -0.06584572792053223,
            0.1010400652885437,
            -0.29843518137931824,
            0.19345270097255707,
            -0.26401400566101074,
            0.13623842597007751,
            -0.01907283253967762,
            -0.237523153424263,
            -0.10848328471183777,
            -0.3846657872200012,
            0.377166748046875,
            -0.11367590725421906,
            -0.12591040134429932,
            -0.16821546852588654,
            0.4097498953342438,
            -0.21940124034881592,
            -0.23564724624156952,
            -0.17719116806983948,
            0.16754069924354553,
            0.14547157287597656,
            -0.36967867612838745,
            -0.27833694219589233,
            -0.18731649219989777,
            0.07818479835987091,
            -0.35275793075561523,
            -0.21317149698734283,
            -0.413968026638031,
            -0.5927966237068176,
            0.3198801875114441,
            -0.5640870928764343,
            -0.20030049979686737,
            0.18327227234840393,
            0.22378364205360413,
            0.19299155473709106,
            0.21852339804172516,
            0.12149734050035477,
            0.020824939012527466,
            0.27764183282852173,
            0.6831574440002441,
            -0.16554386913776398,
            -0.26582270860671997,
            -0.2709237039089203,
            0.09867097437381744,
            0.11289717257022858,
            -0.20474812388420105,
            -0.38728076219558716,
            0.15960989892482758,
            -0.2523361146450043,
            0.2758174240589142,
            0.2686561942100525,
            -0.5177623629570007,
            -0.11294413357973099,
            -0.2192099541425705,
            0.33437609672546387,
            -0.04228009283542633,
            -0.3068857491016388,
            0.22105087339878082,
            -0.5496964454650879,
            0.37094932794570923,
            0.07475868612527847,
            -0.11707067489624023,
            -0.31951096653938293,
            0.027747467160224915,
            -0.2577945590019226,
            0.0641775131225586,
            0.20559124648571014,
            0.6039575934410095,
            -0.5010191202163696,
            0.03778361156582832,
            0.20389416813850403,
            -0.03764249011874199,
            0.1546008586883545,
            0.3260912299156189,
            -0.1506071537733078,
            0.0569261834025383,
            -0.19287818670272827,
            -0.19845399260520935,
            -0.05393451824784279,
            0.3094364404678345,
            0.22895924746990204,
            -0.4250049889087677,
            -0.039977628737688065,
            0.06582913547754288,
            0.25349658727645874,
            -0.09737150371074677,
            -0.3647969365119934,
            -0.015605997294187546,
            -0.5209336876869202,
            0.2564455270767212,
            0.13387466967105865,
            0.3502659201622009
          ],
          "truncated": true
        },
        "b": {
          "__type": "ndarray",
          "dtype": "float32",
          "shape": [
            32
          ],
          "data": [
            -0.1609981209039688,
            -0.03711744397878647,
            0.022122493013739586,
            0.03378453850746155,
            0.2616801857948303,
            0.12640975415706635,
            0.18333813548088074,
            0.1271529495716095,
            0.04888582602143288,
            0.024190587922930717,
            -0.31210747361183167,
            0.09732866287231445,
            -0.0882614254951477,
            -0.33445310592651367,
            -0.13068819046020508,
            0.15186503529548645,
            0.010493887588381767,
            -0.06852021813392639,
            -0.09530501812696457,
            0.000864633300807327,
            0.25138339400291443,
            0.0002911068731918931,
            0.19237829744815826,
            0.172616645693779,
            0.3154602646827698,
            0.08855712413787842,
            0.03900193050503731,
            0.07558703422546387,
            0.1380671113729477,
            0.144722580909729,
            0.04850095137953758,
            0.14509950578212738
          ],
          "truncated": false
        }
      },
      "shape_in": [
        28
      ],
      "shape_out": [
        32
      ]
    },
    {
      "id": 2,
      "op": "standard_act",
      "name": "relu0",
      "inputs": [
        1
      ],
      "outputs": [
        3
      ],
      "attrs": {
        "type": "relu"
      },
      "shape_in": [
        32
      ],
      "shape_out": [
        32
      ]
    },
    {
      "id": 3,
      "op": "matmul",
      "name": "fc1",
      "inputs": [
        2
      ],
      "outputs": [
        4
      ],
      "attrs": {
        "W": {
          "__type": "ndarray",
          "dtype": "float32",
          "shape": [
            16,
            32
          ],
          "data": [
            0.34488749504089355,
            -0.0985298678278923,
            -0.23852741718292236,
            0.10687734186649323,
            0.5171418786048889,
            -0.10540324449539185,
            0.2936410903930664,
            -0.48533305525779724,
            -0.30050286650657654,
            0.23661449551582336,
            0.378318190574646,
            0.12789097428321838,
            0.021191665902733803,
            -0.10698322206735611,
            -0.26835474371910095,
            -0.09764551371335983,
            0.6765908598899841,
            0.5036446452140808,
            0.3599868416786194,
            0.08107512444257736,
            -0.079258032143116,
            -0.27186763286590576,
            -0.43168511986732483,
            -0.18676528334617615,
            0.20374920964241028,
            -0.01898675411939621,
            -0.011978773400187492,
            0.3331117033958435,
            -0.17367315292358398,
            -0.4839838147163391,
            -0.0297979898750782,
            -0.6352752447128296,
            0.40271973609924316,
            -0.5263022184371948,
            0.27039363980293274,
            0.11807631701231003,
            -0.375225692987442,
            -0.6156018972396851,
            -0.40877479314804077,
            0.15176354348659515,
            0.28148385882377625,
            -0.3188636600971222,
            0.4876765310764313,
            0.17478804290294647,
            -0.17990046739578247,
            -0.3207765221595764,
            0.6545155644416809,
            -0.389325350522995,
            -0.3369365930557251,
            -0.43764299154281616,
            0.04137803614139557,
            -0.1731162816286087,
            0.37919411063194275,
            0.04613933339715004,
            0.08168156445026398,
            0.3956819474697113,
            -0.38432279229164124,
            -0.7061805725097656,
            -0.6190178990364075,
            -0.4308152496814728,
            0.21321286261081696,
            0.4490755796432495,
            -0.23978233337402344,
            0.30916932225227356,
            -0.1736171990633011,
            -0.6044765114784241,
            0.20813524723052979,
            0.47686517238616943,
            -0.2759738862514496,
            0.11336983740329742,
            -0.010085899382829666,
            -0.6772555708885193,
            0.5169631242752075,
            0.10174813121557236,
            -0.0672580897808075,
            -0.4697475731372833,
            -0.10986601561307907,
            -0.1401970088481903,
            -0.46182140707969666,
            -0.23877136409282684,
            -0.3492894172668457,
            -0.2289385050535202,
            0.3859352767467499,
            0.3484918475151062,
            0.0570799745619297,
            0.4838707745075226,
            0.4412340223789215,
            0.11569645255804062,
            0.4213234484195709,
            -0.25586143136024475,
            0.2997078597545624,
            -0.004108801018446684,
            -0.26104772090911865,
            -0.2681805193424225,
            0.7025032043457031,
            0.4033620059490204,
            0.0018222599755972624,
            0.3965206444263458,
            -0.11325296759605408,
            0.3405364751815796
          ],
          "truncated": true
        },
        "b": {
          "__type": "ndarray",
          "dtype": "float32",
          "shape": [
            16
          ],
          "data": [
            -0.03139719367027283,
            -0.18675360083580017,
            0.26737117767333984,
            0.07107768952846527,
            -0.21553382277488708,
            0.010383960790932178,
            0.40612906217575073,
            -0.06123046576976776,
            0.08990941941738129,
            0.19215165078639984,
            0.10691443085670471,
            -0.05154545605182648,
            0.10895740240812302,
            -0.1325741410255432,
            0.27261021733283997,
            0.1574048101902008
          ],
          "truncated": false
        }
      },
      "shape_in": [
        32
      ],
      "shape_out": [
        16
      ]
    },
    {
      "id": 4,
      "op": "standard_act",
      "name": "relu1",
      "inputs": [
        3
      ],
      "outputs": [
        5
      ],
      "attrs": {
        "type": "relu"
      },
      "shape_in": [
        16
      ],
      "shape_out": [
        16
      ]
    },
    {
      "id": 5,
      "op": "matmul",
      "name": "fc2",
      "inputs": [
        4
      ],
      "outputs": [
        6
      ],
      "attrs": {
        "W": {
          "__type": "ndarray",
          "dtype": "float32",
          "shape": [
            4,
            16
          ],
          "data": [
            -0.08657526969909668,
            -0.5062437653541565,
            0.15544761717319489,
            0.7071171998977661,
            -0.10235599428415298,
            0.5811852216720581,
            -0.6674284934997559,
            -0.6164538860321045,
            -0.8109480142593384,
            0.6379222273826599,
            0.34495264291763306,
            -0.06132545322179794,
            -0.005265983287245035,
            -0.7050504684448242,
            -0.6678494215011597,
            0.797982931137085,
            -0.04296534135937691,
            -0.3721911311149597,
            0.961689293384552,
            -0.27876055240631104,
            -0.1421925127506256,
            -0.13216862082481384,
            0.1806948333978653,
            -0.14171110093593597,
            -0.49192577600479126,
            0.7062183618545532,
            -0.4885309636592865,
            -0.5391712784767151,
            0.7159518599510193,
            -0.5416420698165894,
            0.8190474510192871,
            -0.2587631642818451,
            0.7209747433662415,
            -0.5606545805931091,
            0.2996862828731537,
            -0.4360697567462921,
            0.6557292938232422,
            0.7114501595497131,
            -0.07118646800518036,
            -0.5944882035255432,
            0.5009670257568359,
            -0.2733660936355591,
            0.00574392220005393,
            0.7727029323577881,
            -0.5340656638145447,
            0.0551447868347168,
            0.27261725068092346,
            -0.4893946647644043,
            0.28663697838783264,
            0.6904863119125366,
            -0.7133541703224182,
            0.1576145589351654,
            0.5721014738082886,
            0.05828821286559105,
            -0.7719718813896179,
            0.21415850520133972,
            -0.29262298345565796,
            -0.4390040338039398,
            0.20776228606700897,
            0.5338089466094971,
            0.5839869379997253,
            0.765256404876709,
            -0.3743651807308197,
            -0.19073769450187683
          ],
          "truncated": false
        },
        "b": {
          "__type": "ndarray",
          "dtype": "float32",
          "shape": [
            4
          ],
          "data": [
            -0.1430807262659073,
            0.29296252131462097,
            0.1342850923538208,
            -0.12368529289960861
          ],
          "truncated": false
        }
      },
      "shape_in": [
        16
      ],
      "shape_out": [
        4
      ]
    },
    {
      "id": 6,
      "op": "softmax",
      "name": "softmax",
      "inputs": [
        5
      ],
      "outputs": [
        7
      ],
      "attrs": {},
      "shape_in": [
        4
      ],
      "shape_out": [
        4
      ]
    },
    {
      "id": 7,
      "op": "argmax",
      "name": "argmax",
      "inputs": [
        6
      ],
      "outputs": [],
      "attrs": {},
      "shape_in": [
        4
      ],
      "shape_out": [
        1
      ]
    }
  ]
}